{"learner":{"attributes":{"best_iteration":"9","best_ntree_limit":"10","scikit_learn":"{\"n_estimators\": 10, \"objective\": \"reg:linear\", \"max_depth\": null, \"max_leaves\": null, \"max_bin\": null, \"grow_policy\": null, \"learning_rate\": null, \"verbosity\": null, \"booster\": null, \"tree_method\": null, \"gamma\": null, \"min_child_weight\": null, \"max_delta_step\": null, \"subsample\": null, \"sampling_method\": null, \"colsample_bytree\": null, \"colsample_bylevel\": null, \"colsample_bynode\": null, \"reg_alpha\": null, \"reg_lambda\": null, \"scale_pos_weight\": null, \"base_score\": null, \"missing\": NaN, \"num_parallel_tree\": null, \"random_state\": null, \"n_jobs\": null, \"monotone_constraints\": null, \"interaction_constraints\": null, \"importance_type\": null, \"gpu_id\": null, \"validate_parameters\": null, \"predictor\": null, \"enable_categorical\": false, \"max_cat_to_onehot\": null, \"eval_metric\": null, \"early_stopping_rounds\": null, \"callbacks\": null, \"kwargs\": {\"seed\": 1}, \"_estimator_type\": \"regressor\"}"},"feature_names":["EG_0_eta","EG_0_phi","EG_0_pt","EG_1_eta","EG_1_phi","EG_1_pt","EG_2_eta","EG_2_phi","EG_2_pt","EG_3_eta","EG_3_phi","EG_3_pt","Jet_0_eta","Jet_0_phi","Jet_0_pt","Jet_1_eta","Jet_1_phi","Jet_1_pt","Jet_2_eta","Jet_2_phi","Jet_2_pt","Jet_3_eta","Jet_3_phi","Jet_3_pt","methf_0_pt","ntt_0_pt"],"feature_types":["float","float","float","float","float","float","float","float","float","float","float","float","float","float","float","float","float","float","float","float","float","float","float","float","float","float"],"gradient_booster":{"model":{"gbtree_model_param":{"num_parallel_tree":"1","num_trees":"10","size_leaf_vector":"0"},"tree_info":[0,0,0,0,0,0,0,0,0,0],"trees":[{"base_weights":[4.7494358E1,4.0977924E1,1.2231178E2,3.564219E1,6.0691975E1,1.0530245E2,1.983153E2,3.0409527E1,4.012678E1,5.164526E1,6.735764E1,4.3613903E1,1.0854539E2,2.0001099E2,2.7939505E1,2.3373665E1,3.320429E1,3.7767002E1,4.6936295E1,4.8477596E1,5.8367657E1,6.0453423E1,7.311914E1,4.8478783E1,1.8350529E1,9.8825096E1,1.261363E2,1.7163387E2,2.2430157E2,2.2555656E1,3.3525684E1,3.2091927E1,3.969205E1,3.218282E1,4.009756E1,4.5861687E1,6.748605E1,3.5991547E1,5.02062E1,3.8436638E1,6.2333538E1,5.6882015E1,7.257852E1,7.0960014E1,9.2036674E1,1.4298881E1,5.2082848E1,2.0799652E1,4.277018E0,1.0027152E2,3.6148624E1,1.2761742E2,4.8687687E1,2.1387613E1,1.7470193E2,1.1082891E2,2.3332951E2,1.7419992E1,2.3453333E1,1.2363214E0,3.432192E1,2.9963795E1,3.4748768E1,3.779406E1,5.108637E1,5.5570126E1,3.1553383E1,3.8783314E1,4.6972805E1,4.0231422E1,4.7804943E1,7.1762344E1,9.354948E0,2.104231E1,4.4316357E1,5.0845436E1,2.677552E1,4.9182156E1,2.0010763E1,6.399149E1,3.3670002E1,5.890481E1,3.9390564E1,4.627755E0,7.355272E1,7.208523E1,4.3049957E1,9.050785E0,9.4347145E1,7.6109138E0,1.0063498E2,1.2524515E1,4.3093365E1,1.3165808E2,9.2114334E1,1.7658649E2,4.8717625E1,1.8005238E1,1.2953352E2,4.6509212E1,2.371217E2],"categories":[],"categories_nodes":[],"categories_segments":[],"categories_sizes":[],"default_left":[1,1,1,1,1,1,1,1,1,1,1,1,1,1,0,1,1,1,1,1,1,1,1,1,1,1,1,1,1,1,1,1,1,1,1,1,1,1,1,1,1,1,1,1,1,0,0,0,0,1,1,1,0,0,1,1,1,0,0,0,0,0,0,0,0,0,0,0,0,0,0,0,0,0,0,0,0,0,0,0,0,0,0,0,0,0,0,0,0,0,0,0,0,0,0,0,0,0,0,0,0],"id":0,"left_children":[1,3,5,7,9,11,13,15,17,19,21,23,25,27,-1,29,31,33,35,37,39,41,43,45,47,49,51,53,55,57,59,61,63,65,67,69,71,73,75,77,79,81,83,85,87,-1,-1,-1,-1,89,91,93,-1,-1,95,97,99,-1,-1,-1,-1,-1,-1,-1,-1,-1,-1,-1,-1,-1,-1,-1,-1,-1,-1,-1,-1,-1,-1,-1,-1,-1,-1,-1,-1,-1,-1,-1,-1,-1,-1,-1,-1,-1,-1,-1,-1,-1,-1,-1,-1],"loss_changes":[2.864178E6,5.67435E5,5.880115E5,9.88405E4,6.59895E4,7.26855E4,1.89685E4,3.80005E4,3.50735E4,7.6685E3,2.18335E4,1.6913594E3,5.0288E4,1.9403E4,0E0,3.9275312E3,8.894625E3,2.0938E4,9.8455E3,5.553E3,9.697875E3,9.122625E3,7.96925E3,1.3494453E3,8.337842E1,1.82235E4,8.354875E3,1.6085125E4,1.7166E4,2.0117812E3,9.8596094E2,5.788875E3,2.43775E3,5.72475E3,9.03025E3,4.20375E3,6.0404766E3,4.667711E3,3.087E3,4.559703E3,3.8332812E3,6.2066875E3,4.0286562E3,7.0405E3,5.4734062E3,0E0,0E0,0E0,0E0,7.1485E3,6.087207E2,5.660875E3,0E0,0E0,1.369E3,6.348871E3,1.5893125E4,0E0,0E0,0E0,0E0,0E0,0E0,0E0,0E0,0E0,0E0,0E0,0E0,0E0,0E0,0E0,0E0,0E0,0E0,0E0,0E0,0E0,0E0,0E0,0E0,0E0,0E0,0E0,0E0,0E0,0E0,0E0,0E0,0E0,0E0,0E0,0E0,0E0,0E0,0E0,0E0,0E0,0E0,0E0,0E0],"parents":[2147483647,0,0,1,1,2,2,3,3,4,4,5,5,6,6,7,7,8,8,9,9,10,10,11,11,12,12,13,13,15,15,16,16,17,17,18,18,19,19,20,20,21,21,22,22,23,23,24,24,25,25,26,26,27,27,28,28,29,29,30,30,31,31,32,32,33,33,34,34,35,35,36,36,37,37,38,38,39,39,40,40,41,41,42,42,43,43,44,44,49,49,50,50,51,51,54,54,55,55,56,56],"right_children":[2,4,6,8,10,12,14,16,18,20,22,24,26,28,-1,30,32,34,36,38,40,42,44,46,48,50,52,54,56,58,60,62,64,66,68,70,72,74,76,78,80,82,84,86,88,-1,-1,-1,-1,90,92,94,-1,-1,96,98,100,-1,-1,-1,-1,-1,-1,-1,-1,-1,-1,-1,-1,-1,-1,-1,-1,-1,-1,-1,-1,-1,-1,-1,-1,-1,-1,-1,-1,-1,-1,-1,-1,-1,-1,-1,-1,-1,-1,-1,-1,-1,-1,-1,-1],"split_conditions":[5.625E1,4.475E1,1.1825E2,2.375E1,2.825E1,4.375E1,2.55E1,2.0125E2,2.775E1,6.775E1,6.925E1,1.0874634E0,8.125E1,1.5525E2,8.381852E0,2.25E0,2.1750488E0,2.2625E2,1.979248E0,1.9E2,-7.58667E-1,4.075E1,4.65E1,-1.3049316E0,2.3273926E0,1.2875E2,2.8928223E0,-1.0632324E0,-1.8679199E0,1.3275E2,-1.9331055E0,2.6075E2,3.4975E2,-3.6540527E0,3.3061523E0,2.875E1,2.625E1,-2.1751404E-2,2.775E1,5.275E1,1.235E2,1.8E1,-2.3667908E-1,3.9E1,0E0,4.2896643E0,1.5624855E1,6.239896E0,1.2831055E0,-3.020752E0,-3.236847E-1,3.3375E2,1.4606307E1,6.416284E0,2.045E2,5.6547546E-1,-3.001709E0,5.225998E0,7.0360003E0,3.7089646E-1,1.0296576E1,8.989139E0,1.0424631E1,1.1338219E1,1.53259115E1,1.6671038E1,9.466015E0,1.16349945E1,1.4091842E1,1.20694275E1,1.4341483E1,2.1528704E1,2.8064845E0,6.3126936E0,1.3294908E1,1.5253632E1,8.032657E0,1.4754647E1,6.003229E0,1.9197447E1,1.0101001E1,1.7671444E1,1.1817169E1,1.3883266E0,2.2065817E1,2.1625568E1,1.2914988E1,2.7152357E0,2.8304144E1,2.2832742E0,3.0190495E1,3.7573547E0,1.292801E1,3.9497425E1,2.7634302E1,5.297595E1,1.4615288E1,5.4015713E0,3.8860058E1,1.39527645E1,7.113651E1],"split_indices":[24,14,24,14,24,14,8,25,24,14,14,10,24,24,0,20,12,25,10,25,16,17,20,3,0,17,4,16,10,25,1,25,25,15,12,14,20,15,24,17,17,2,1,20,0,0,0,0,0,4,7,25,0,0,2,0,18,0,0,0,0,0,0,0,0,0,0,0,0,0,0,0,0,0,0,0,0,0,0,0,0,0,0,0,0,0,0,0,0,0,0,0,0,0,0,0,0,0,0,0,0],"split_type":[0,0,0,0,0,0,0,0,0,0,0,0,0,0,0,0,0,0,0,0,0,0,0,0,0,0,0,0,0,0,0,0,0,0,0,0,0,0,0,0,0,0,0,0,0,0,0,0,0,0,0,0,0,0,0,0,0,0,0,0,0,0,0,0,0,0,0,0,0,0,0,0,0,0,0,0,0,0,0,0,0,0,0,0,0,0,0,0,0,0,0,0,0,0,0,0,0,0,0,0,0],"sum_hessian":[5.884E3,5.414E3,4.7E2,4.263E3,1.151E3,3.86E2,8.4E1,1.971E3,2.292E3,4.92E2,6.59E2,2E1,3.66E2,8.3E1,1E0,5.63E2,1.408E3,1.707E3,5.85E2,3.4E2,1.52E2,3.05E2,3.54E2,1.6E1,4E0,2.4E2,1.26E2,4.2E1,4.1E1,5.24E2,3.9E1,1.207E3,2.01E2,5.07E2,1.2E3,5.59E2,2.6E1,4.4E1,2.96E2,2.7E1,1.25E2,2.4E2,6.5E1,3.22E2,3.2E1,2E0,1.4E1,3E0,1E0,2.34E2,6E0,1.23E2,3E0,1E0,4.1E1,4E0,3.7E1,8.1E1,4.43E2,1E0,3.8E1,6.77E2,5.3E2,1.76E2,2.5E1,1.1E1,4.96E2,1.013E3,1.87E2,1.49E2,4.1E2,2.4E1,2E0,1.7E1,2.7E1,2.87E2,9E0,1.6E1,1.1E1,1.17E2,8E0,2.13E2,2.7E1,1E0,6.4E1,3.08E2,1.4E1,1E0,3.1E1,1E0,2.33E2,2E0,4E0,1.08E2,1.5E1,4E1,1E0,1E0,3E0,1E0,3.6E1],"tree_param":{"num_deleted":"0","num_feature":"26","num_nodes":"101","size_leaf_vector":"0"}},{"base_weights":[3.3374027E1,2.875529E1,8.640397E1,2.4369795E1,4.083272E1,7.584871E1,1.5116685E2,2.0490437E1,2.7734066E1,3.6376152E1,4.835653E1,6.887934E1,9.770906E1,1.6234647E2,9.8844955E1,1.7803598E1,2.320474E1,2.6549313E1,3.366998E1,3.541422E1,5.587728E1,4.118402E1,5.1322796E1,3.183628E1,7.130751E1,1.0153953E2,4.939903E1,1.6492957E2,1.5304452E1,3.7314896E1,1.1223362E2,1.7369625E1,3.122542E1,2.2236366E1,3.196404E1,2.5667263E1,3.478996E1,2.3988478E1,3.52036E1,3.170703E1,3.8493923E1,7.813947E1,4.3970875E1,3.680207E1,5.1029552E1,4.975558E1,6.646859E1,3.451137E1,1.18393E1,6.2655205E1,7.9190895E1,1.8179472E1,1.0228873E2,8.965834E0,5.333245E1,1.6666393E2,3.910543E1,4.230641E1,1.1170174E1,1.1870726E2,2.3748579E1,1.5921932E1,2.0364176E1,7.239583E0,3.492141E1,2.1721638E1,3.5221237E1,1.628738E1,3.5176907E1,2.4458078E1,3.07158E1,4.2213192E1,2.9623484E1,1.2238589E1,2.7686108E1,3.3903873E1,5.763823E1,2.6006462E1,3.4057247E1,3.9879604E1,3.2284542E1,2.7889252E1,9.042561E1,5.6687813E1,2.6296455E1,1.6375136E0,3.772936E1,-6.265216E0,5.241129E1,4.436613E1,5.378407E1,7.523001E1,3.57194E1,1.1439105E1,3.668046E1,1.336209E1,3.6354654E0,6.478273E1,3.3853867E1,8.924516E0,8.008619E1,2.0396225E1,1.030038E2,5.7227158E1,1.3034742E1,3.953283E1,1.6845166E2],"categories":[],"categories_nodes":[],"categories_segments":[],"categories_sizes":[],"default_left":[1,1,1,1,1,1,1,1,1,1,1,1,1,1,1,1,1,1,1,1,1,1,1,1,1,1,1,1,0,1,1,1,1,1,1,1,1,1,1,1,1,1,1,1,1,1,1,1,1,1,1,0,1,0,1,1,0,0,0,0,0,0,0,0,0,0,0,0,0,0,0,0,0,0,0,0,0,0,0,0,0,0,0,0,0,0,0,0,0,0,0,0,0,0,0,0,0,0,0,0,0,0,0,0,0,0,0],"id":1,"left_children":[1,3,5,7,9,11,13,15,17,19,21,23,25,27,29,31,33,35,37,39,41,43,45,47,49,51,53,55,-1,57,59,61,63,65,67,69,71,73,75,77,79,81,83,85,87,89,91,93,95,97,99,-1,101,-1,103,105,-1,-1,-1,-1,-1,-1,-1,-1,-1,-1,-1,-1,-1,-1,-1,-1,-1,-1,-1,-1,-1,-1,-1,-1,-1,-1,-1,-1,-1,-1,-1,-1,-1,-1,-1,-1,-1,-1,-1,-1,-1,-1,-1,-1,-1,-1,-1,-1,-1,-1,-1],"loss_changes":[1.4389375E6,2.858135E5,3.1050475E5,5.131025E4,4.65585E4,5.52775E4,2.197375E4,1.30786875E4,1.405725E4,1.5073E4,9.226125E3,2.579325E4,1.27488125E4,1.722675E4,7.345297E3,4.8979375E3,7.0675E3,1.20235E4,4.35225E3,8.700875E3,7.431711E3,5.0679688E3,5.546625E3,7.147793E2,1.49555E4,3.636375E3,9.531953E2,4.612125E3,0E0,4.943701E1,3.4818906E3,3.6077812E3,2.2294258E3,4.7756875E3,3.9097266E3,9.071125E3,5.2309688E3,1.8769453E3,6.7935312E3,4.4733438E3,2.7565625E3,5.5040547E3,5.0274805E3,3.6880938E3,4.0491953E3,5.0390625E3,5.9338438E3,4.8123047E2,1.3934937E0,6.6305E3,8.65875E3,0E0,2.99375E3,0E0,5.0964258E2,4.704375E3,0E0,0E0,0E0,0E0,0E0,0E0,0E0,0E0,0E0,0E0,0E0,0E0,0E0,0E0,0E0,0E0,0E0,0E0,0E0,0E0,0E0,0E0,0E0,0E0,0E0,0E0,0E0,0E0,0E0,0E0,0E0,0E0,0E0,0E0,0E0,0E0,0E0,0E0,0E0,0E0,0E0,0E0,0E0,0E0,0E0,0E0,0E0,0E0,0E0,0E0,0E0],"parents":[2147483647,0,0,1,1,2,2,3,3,4,4,5,5,6,6,7,7,8,8,9,9,10,10,11,11,12,12,13,13,14,14,15,15,16,16,17,17,18,18,19,19,20,20,21,21,22,22,23,23,24,24,25,25,26,26,27,27,29,29,30,30,31,31,32,32,33,33,34,34,35,35,36,36,37,37,38,38,39,39,40,40,41,41,42,42,43,43,44,44,45,45,46,46,47,47,48,48,49,49,50,50,52,52,54,54,55,55],"right_children":[2,4,6,8,10,12,14,16,18,20,22,24,26,28,30,32,34,36,38,40,42,44,46,48,50,52,54,56,-1,58,60,62,64,66,68,70,72,74,76,78,80,82,84,86,88,90,92,94,96,98,100,-1,102,-1,104,106,-1,-1,-1,-1,-1,-1,-1,-1,-1,-1,-1,-1,-1,-1,-1,-1,-1,-1,-1,-1,-1,-1,-1,-1,-1,-1,-1,-1,-1,-1,-1,-1,-1,-1,-1,-1,-1,-1,-1,-1,-1,-1,-1,-1,-1,-1,-1,-1,-1,-1,-1],"split_conditions":[5.625E1,3.975E1,1.2825E2,2.4275E2,6.775E1,9.075E1,1.4025E2,2.5E-1,3.1103516E0,4.725E1,2.875E1,4.375E1,2.3708496E0,6.725E1,2.45E1,3.325E1,2.1751404E-2,3.4925E2,1.3049316E0,2.375E1,3.75E0,1.7399597E-1,4.65E1,4.25E0,1.56604E0,-2.5419922E0,-2.0202637E0,3.1101074E0,4.591336E0,1.9793701E0,2.375E1,1.975E1,-6.7422485E-1,3.825E1,2.125E1,3.225E1,-8.6997986E-2,-1.7374268E0,3.275E1,1.8487549E0,3.2626343E-1,-1.3049316E-1,8.699951E-1,-1.2833252E0,8.482666E-1,-2.1751404E-2,3.875E1,-1.3049316E0,1.7399902E0,3.41E2,-2.694336E0,5.4538417E0,-3.915039E0,2.6897502E0,2.4143066E0,-3.0668945E0,1.1731629E1,1.2691924E1,3.3510523E0,3.561218E1,7.124574E0,4.77658E0,6.109253E0,2.171875E0,1.0476423E1,6.5164914E0,1.0566372E1,4.8862143E0,1.0553072E1,7.337424E0,9.21474E0,1.2663959E1,8.887046E0,3.671577E0,8.305833E0,1.0171163E1,1.729147E1,7.801939E0,1.0217175E1,1.19638815E1,9.685363E0,8.3667755E0,2.7127686E1,1.7006344E1,7.888937E0,4.9125412E-1,1.1318808E1,-1.8795649E0,1.5723388E1,1.330984E1,1.6135221E1,2.2569004E1,1.071582E1,3.4317317E0,1.1004139E1,4.0086274E0,1.0906397E0,1.943482E1,1.015616E1,2.6773548E0,2.4025858E1,6.118868E0,3.090114E1,1.7168148E1,3.9104228E0,1.1859849E1,5.05355E1],"split_indices":[24,14,24,25,14,24,17,17,12,24,24,14,0,23,20,24,19,25,1,24,5,19,20,8,12,22,10,1,0,0,8,14,3,24,14,14,21,10,17,1,9,12,15,3,1,18,2,3,0,25,4,0,21,0,0,18,0,0,0,0,0,0,0,0,0,0,0,0,0,0,0,0,0,0,0,0,0,0,0,0,0,0,0,0,0,0,0,0,0,0,0,0,0,0,0,0,0,0,0,0,0,0,0,0,0,0,0],"split_type":[0,0,0,0,0,0,0,0,0,0,0,0,0,0,0,0,0,0,0,0,0,0,0,0,0,0,0,0,0,0,0,0,0,0,0,0,0,0,0,0,0,0,0,0,0,0,0,0,0,0,0,0,0,0,0,0,0,0,0,0,0,0,0,0,0,0,0,0,0,0,0,0,0,0,0,0,0,0,0,0,0,0,0,0,0,0,0,0,0,0,0,0,0,0,0,0,0,0,0,0,0,0,0,0,0,0,0],"sum_hessian":[5.884E3,5.414E3,4.7E2,3.974E3,1.44E3,4.06E2,6.4E1,1.849E3,2.125E3,9.08E2,5.32E2,3.11E2,9.5E1,5.1E1,1.3E1,9.33E2,9.16E2,1.776E3,3.49E2,8.68E2,4E1,1.6E2,3.72E2,2E1,2.91E2,8.7E1,8E0,5E1,1E0,3E0,1E1,9.06E2,2.7E1,8.28E2,8.8E1,1.608E3,1.68E2,5E1,2.99E2,3.99E2,4.69E2,1.2E1,2.8E1,1.14E2,4.6E1,3.41E2,3.1E1,1.7E1,3E0,1.43E2,1.48E2,1E0,8.6E1,1E0,7E0,4.9E1,1E0,2E0,1E0,9E0,1E0,6.15E2,2.91E2,4E0,2.3E1,7.99E2,2.9E1,1.6E1,7.2E1,1.302E3,3.06E2,6.6E1,1.02E2,1.3E1,3.7E1,2.85E2,1.4E1,1.2E2,2.79E2,3.79E2,9E1,3E0,9E0,1.5E1,1.3E1,3E0,1.11E2,1E0,4.5E1,1.51E2,1.9E2,2.3E1,8E0,2E0,1.5E1,2E0,1E0,1.32E2,1.1E1,2E0,1.46E2,1E0,8.5E1,6E0,1E0,1E0,4.8E1],"tree_param":{"num_deleted":"0","num_feature":"26","num_nodes":"107","size_leaf_vector":"0"}},{"base_weights":[2.3464046E1,2.0810072E1,7.080315E1,1.7782417E1,3.3038857E1,6.0786255E1,1.0793215E2,1.6087563E1,2.2184265E1,2.9663155E1,4.21648E1,3.1334265E1,6.2414433E1,5.9289608E1,1.1278057E2,1.2962028E1,1.8214964E1,2.1151243E1,2.9175426E1,2.2844242E1,3.1280554E1,4.958622E1,3.7311207E1,1.9547762E1,4.2012016E1,5.693324E1,7.04021E1,8.708678E1,2.5193956E1,1.22529175E2,7.339002E1,2.2590445E1,1.2450162E1,1.672114E1,2.1418707E1,1.7964977E1,2.3202702E1,1.5430776E1,3.1069313E1,1.5340148E1,2.8573977E1,3.008028E1,3.9486507E1,5.1271385E1,2.0848845E1,3.3147453E1,4.8331196E1,2.4709053E1,1.0476921E1,4.9888332E1,7.462111E1,7.2327576E1,1.0441124E1,7.459614E1,1.34093E2,9.494648E0,7.757469E1,1.667516E1,3.1387897E1,1.1562928E1,1.7014196E1,1.6184137E1,2.294332E1,2.0122175E1,2.9953865E1,1.7028095E1,3.2423866E1,2.4743277E1,1.8231579E1,2.7273626E0,2.4731056E1,1.5634601E1,3.242597E1,2.9497242E1,1.0685408E1,3.9897953E1,2.0129427E1,3.9638165E1,2.8800629E1,8.999095E1,3.7037792E1,4.0632366E1,5.862815E1,3.5683453E1,-1.5769985E1,3.4216194E1,-1.067503E1,7.016891E1,3.6278633E1,5.5035103E1,2.1668827E1,8.71067E0,7.6126366E1,7.5530045E1,3.5824795E1,9.180845E1,4.495114E1,8.2258865E1,1.4411372E2,8.142197E1,1.5703674E1],"categories":[],"categories_nodes":[],"categories_segments":[],"categories_sizes":[],"default_left":[1,1,1,1,1,1,1,1,1,1,1,1,1,1,1,1,1,1,1,1,1,1,1,1,0,1,1,0,0,1,1,1,1,1,1,1,1,1,1,1,1,1,1,1,1,1,1,0,0,1,1,1,0,1,1,0,1,0,0,0,0,0,0,0,0,0,0,0,0,0,0,0,0,0,0,0,0,0,0,0,0,0,0,0,0,0,0,0,0,0,0,0,0,0,0,0,0,0,0,0,0],"id":2,"left_children":[1,3,5,7,9,11,13,15,17,19,21,23,25,27,29,31,33,35,37,39,41,43,45,47,-1,49,51,-1,-1,53,55,57,59,61,63,65,67,69,71,73,75,77,79,81,83,85,87,-1,-1,89,91,93,-1,95,97,-1,99,-1,-1,-1,-1,-1,-1,-1,-1,-1,-1,-1,-1,-1,-1,-1,-1,-1,-1,-1,-1,-1,-1,-1,-1,-1,-1,-1,-1,-1,-1,-1,-1,-1,-1,-1,-1,-1,-1,-1,-1,-1,-1,-1,-1],"loss_changes":[7.378995E5,2.0578725E5,1.09477375E5,3.2991375E4,3.279025E4,9.9366875E3,8.6428125E3,2.1247688E4,8.33825E3,8.2188125E3,8.812E3,1.0665586E3,6.23675E3,5.388039E3,1.327975E4,6.184875E3,8.830625E3,6.6687188E3,3.6074062E3,6.3981094E3,5.2340625E3,4.45175E3,6.7948125E3,1.6248047E2,0E0,1.4221E4,9.7510625E3,0E0,0E0,1.494025E4,3.0067969E3,2.859168E3,4.8568906E3,4.0191875E3,6.114375E3,5.2592344E3,4.5728125E3,2.413601E3,2.3617656E3,4.363539E3,7.707578E3,5.866625E3,6.5606094E3,5.9925625E3,4.908535E3,6.734797E3,1.0087984E4,0E0,0E0,1.4202844E4,3.2061562E3,7.5812812E3,0E0,1.4859531E3,6.3249375E3,0E0,1.8158281E3,0E0,0E0,0E0,0E0,0E0,0E0,0E0,0E0,0E0,0E0,0E0,0E0,0E0,0E0,0E0,0E0,0E0,0E0,0E0,0E0,0E0,0E0,0E0,0E0,0E0,0E0,0E0,0E0,0E0,0E0,0E0,0E0,0E0,0E0,0E0,0E0,0E0,0E0,0E0,0E0,0E0,0E0,0E0,0E0],"parents":[2147483647,0,0,1,1,2,2,3,3,4,4,5,5,6,6,7,7,8,8,9,9,10,10,11,11,12,12,13,13,14,14,15,15,16,16,17,17,18,18,19,19,20,20,21,21,22,22,23,23,25,25,26,26,29,29,30,30,31,31,32,32,33,33,34,34,35,35,36,36,37,37,38,38,39,39,40,40,41,41,42,42,43,43,44,44,45,45,46,46,49,49,50,50,51,51,53,53,54,54,56,56],"right_children":[2,4,6,8,10,12,14,16,18,20,22,24,26,28,30,32,34,36,38,40,42,44,46,48,-1,50,52,-1,-1,54,56,58,60,62,64,66,68,70,72,74,76,78,80,82,84,86,88,-1,-1,90,92,94,-1,96,98,-1,100,-1,-1,-1,-1,-1,-1,-1,-1,-1,-1,-1,-1,-1,-1,-1,-1,-1,-1,-1,-1,-1,-1,-1,-1,-1,-1,-1,-1,-1,-1,-1,-1,-1,-1,-1,-1,-1,-1,-1,-1,-1,-1,-1,-1],"split_conditions":[6.875E1,5.125E1,1.2825E2,3.225E1,4.725E1,6.025E1,3.2624817E-1,2.3025E2,3.825E1,1.775E1,2.8274536E-1,6.25E0,1.2180176E0,-2.1751404E-2,1.4025E2,-1.56604E0,2.9925E2,1.225E1,-7.484436E-2,2.6075E2,8.699951E-1,6.75E1,2.375E1,-2.1749878E-1,1.2603605E1,1.0175E2,2.71875E0,2.6126034E1,7.558187E0,2.625E1,-2.8684082E0,-8.892212E-1,5.872803E-1,3.4799805E0,1.3919678E0,3.0666504E0,2.8493652E0,1.2178955E0,-2.6970215E0,-8.482666E-1,6.742554E-1,-1.7399597E-1,1.6175E2,-1.95755E-1,-1.522522E-1,2.5666504E0,8.15E1,7.4127164E0,3.1430764E0,2.225E1,-2.9987793E0,2.1530762E0,3.1323373E0,8.2647705E-1,1.0874634E0,2.8483944E0,3.828125E0,5.002548E0,9.416369E0,3.4688785E0,5.104259E0,4.8552413E0,6.882996E0,6.036653E0,8.98616E0,5.108429E0,9.72716E0,7.422983E0,5.469474E0,8.182088E-1,7.4193172E0,4.6903806E0,9.727791E0,8.849173E0,3.2056224E0,1.1969386E1,6.0388284E0,1.189145E1,8.640189E0,2.6997286E1,1.1111338E1,1.2189711E1,1.7588446E1,1.0705036E1,-4.7309957E0,1.0264858E1,-3.2025092E0,2.1050673E1,1.0883591E1,1.6510532E1,6.5006485E0,2.6132011E0,2.283791E1,2.2659014E1,1.0747438E1,2.7542536E1,1.3485343E1,2.467766E1,4.323412E1,2.4426592E1,4.7111025E0],"split_indices":[24,14,24,14,24,14,0,25,24,24,3,2,16,0,17,18,25,20,4,25,19,24,23,18,0,24,7,0,0,17,7,19,7,12,15,1,1,12,18,9,3,12,25,3,15,15,14,0,0,23,7,3,0,16,13,0,12,0,0,0,0,0,0,0,0,0,0,0,0,0,0,0,0,0,0,0,0,0,0,0,0,0,0,0,0,0,0,0,0,0,0,0,0,0,0,0,0,0,0,0,0],"split_type":[0,0,0,0,0,0,0,0,0,0,0,0,0,0,0,0,0,0,0,0,0,0,0,0,0,0,0,0,0,0,0,0,0,0,0,0,0,0,0,0,0,0,0,0,0,0,0,0,0,0,0,0,0,0,0,0,0,0,0,0,0,0,0,0,0,0,0,0,0,0,0,0,0,0,0,0,0,0,0,0,0,0,0,0,0,0,0,0,0,0,0,0,0,0,0,0,0,0,0,0,0],"sum_hessian":[5.884E3,5.573E3,3.11E2,4.469E3,1.104E3,2.47E2,6.4E1,3.23E3,1.239E3,8.09E2,2.95E2,1.4E1,2.33E2,7E0,5.7E1,1.311E3,1.919E3,1.083E3,1.56E2,1.58E2,6.51E2,1.13E2,1.82E2,8E0,6E0,1.43E2,9E1,3E0,4E0,4.4E1,1.3E1,6.4E1,1.247E3,1.313E3,6.06E2,4.28E2,6.55E2,2E1,1.36E2,7E1,8.8E1,5.72E2,7.9E1,1.06E2,7E0,1.35E2,4.7E1,4E0,4E0,1.05E2,3.8E1,8.7E1,3E0,1E1,3.4E1,1E0,1.2E1,4E1,2.4E1,1.047E3,2E2,1.212E3,1.01E2,5.29E2,7.7E1,4.04E2,2.4E1,4.97E2,1.58E2,9E0,1.1E1,1.2E1,1.24E2,1.6E1,5.4E1,3.6E1,5.2E1,6.4E1,5.08E2,2E0,7.7E1,4.6E1,6E1,5E0,2E0,1.32E2,3E0,1.5E1,3.2E1,8.8E1,1.7E1,1E0,3.7E1,7.9E1,8E0,5E0,5E0,7E0,2.7E1,1.1E1,1E0],"tree_param":{"num_deleted":"0","num_feature":"26","num_nodes":"101","size_leaf_vector":"0"}},{"base_weights":[1.6517672E1,1.4614338E1,5.0468517E1,1.2470093E1,2.3275118E1,4.4271496E1,8.446723E1,1.1657133E1,1.7499512E1,2.0873718E1,2.9767887E1,3.832583E1,5.1403976E1,1.0128834E2,5.8817837E1,1.0436839E1,1.4344268E1,1.6896336E1,3.0629923E1,1.6439438E1,2.2408264E1,3.041556E1,-6.60556E0,3.1557533E1,4.757259E1,3.2170963E1,5.6228218E1,7.905203E1,1.4421806E2,1.6558258E1,7.876489E1,7.9764104E0,1.13305435E1,1.2408902E1,1.63044E1,1.7482891E1,3.9094076E0,3.9766994E1,8.952457E0,4.740346E1,1.5150894E1,1.18211975E1,2.3288284E1,2.8958721E1,4.776736E1,-2.5429771E1,2.0695242E1,3.3260757E1,2.4528143E0,5.8329754E1,3.2811295E1,-5.0808816E0,4.6162743E1,1.9876993E1,5.895591E1,8.391272E1,2.3537226E1,1.610069E2,1.3348122E1,2.3996195E1,-1.7753647E1,3.591303E1,1.1648633E2,3.300853E1,7.7878313E0,9.910601E0,1.2611032E1,3.5989265E1,1.2034515E1,1.688708E1,3.943633E0,1.6793558E1,2.8170446E1,7.709421E-1,2.8760153E1,-1.2985735E0,4.8066677E1,1.6032309E1,2.7404811E0,5.049123E1,1.28945465E1,1.4403798E1,6.065404E1,8.1620865E0,4.165714E1,2.7376593E1,1.9473055E1,5.6046555E1,2.7814304E1,-1.3451885E1,5.150092E1,2.52042E0,2.8522444E1,2.1573244E1,3.7847446E1,-1.0079918E1,1.834552E1,2.1372719E1,6.1216797E1,4.6842354E1,1.7528221E1,8.261978E0,-1.4738993E1,5.520513E1,-1.5475016E0,2.4971594E1,8.539495E0,6.641571E1,4.4962418E1,1.4958111E1,8.708898E1,5.1098583E1,7.9528313E0],"categories":[],"categories_nodes":[],"categories_segments":[],"categories_sizes":[],"default_left":[1,1,1,1,1,1,1,1,1,1,1,1,1,1,1,1,1,1,1,1,1,1,1,1,1,1,1,1,1,1,1,1,1,1,1,1,1,1,1,1,1,1,1,1,1,0,1,1,1,1,1,1,1,1,1,1,0,0,0,0,0,1,0,0,0,0,0,0,0,0,0,0,0,0,0,0,0,0,0,0,0,0,0,0,0,0,0,0,0,0,0,0,0,0,0,0,0,0,0,0,0,0,0,0,0,0,0,0,0,0,0,0,0],"id":3,"left_children":[1,3,5,7,9,11,13,15,17,19,21,23,25,27,29,31,33,35,37,39,41,43,45,47,49,51,53,55,57,59,61,63,65,67,69,71,73,75,77,79,81,83,85,87,89,-1,91,93,95,97,99,101,103,105,107,109,-1,-1,-1,-1,-1,111,-1,-1,-1,-1,-1,-1,-1,-1,-1,-1,-1,-1,-1,-1,-1,-1,-1,-1,-1,-1,-1,-1,-1,-1,-1,-1,-1,-1,-1,-1,-1,-1,-1,-1,-1,-1,-1,-1,-1,-1,-1,-1,-1,-1,-1,-1,-1,-1,-1,-1,-1],"loss_changes":[3.7954988E5,1.032235E5,6.1996E4,1.8072625E4,1.66075E4,9.310219E3,1.4320625E4,1.24780625E4,4.3928594E3,5.1433438E3,7.174125E3,7.8238438E3,9.1396875E3,1.43734375E4,1.6397828E4,5.7410938E3,4.3499688E3,4.4640938E3,4.7937695E3,7.7402773E3,5.3055E3,5.9728438E3,3.6097717E3,4.3303203E3,7.772297E3,1.378626E4,8.0495312E3,3.4217266E3,1.5428078E4,2.467698E3,1.8446703E4,3.0945195E3,3.4078125E3,4.934422E3,4.204422E3,3.7189062E3,2.0836443E3,6.197381E3,3.518825E2,2.0138281E2,6.0953633E3,4.900296E3,8.0769062E3,6.8420312E3,5.49266E3,0E0,3.548855E2,3.6864922E3,1.3799955E3,2.3193125E3,5.1831914E3,1.1527079E3,8.282305E3,2.488352E2,5.9912188E3,2.6396406E3,0E0,0E0,0E0,0E0,0E0,2.9903496E3,0E0,0E0,0E0,0E0,0E0,0E0,0E0,0E0,0E0,0E0,0E0,0E0,0E0,0E0,0E0,0E0,0E0,0E0,0E0,0E0,0E0,0E0,0E0,0E0,0E0,0E0,0E0,0E0,0E0,0E0,0E0,0E0,0E0,0E0,0E0,0E0,0E0,0E0,0E0,0E0,0E0,0E0,0E0,0E0,0E0,0E0,0E0,0E0,0E0,0E0,0E0],"parents":[2147483647,0,0,1,1,2,2,3,3,4,4,5,5,6,6,7,7,8,8,9,9,10,10,11,11,12,12,13,13,14,14,15,15,16,16,17,17,18,18,19,19,20,20,21,21,22,22,23,23,24,24,25,25,26,26,27,27,28,28,29,29,30,30,31,31,32,32,33,33,34,34,35,35,36,36,37,37,38,38,39,39,40,40,41,41,42,42,43,43,44,44,46,46,47,47,48,48,49,49,50,50,51,51,52,52,53,53,54,54,55,55,61,61],"right_children":[2,4,6,8,10,12,14,16,18,20,22,24,26,28,30,32,34,36,38,40,42,44,46,48,50,52,54,56,58,60,62,64,66,68,70,72,74,76,78,80,82,84,86,88,90,-1,92,94,96,98,100,102,104,106,108,110,-1,-1,-1,-1,-1,112,-1,-1,-1,-1,-1,-1,-1,-1,-1,-1,-1,-1,-1,-1,-1,-1,-1,-1,-1,-1,-1,-1,-1,-1,-1,-1,-1,-1,-1,-1,-1,-1,-1,-1,-1,-1,-1,-1,-1,-1,-1,-1,-1,-1,-1,-1,-1,-1,-1,-1,-1],"split_conditions":[6.875E1,5.125E1,1.4875E2,3.125E1,4.725E1,1.7399902E0,2.54E2,1.275E1,2.4360352E0,-4.5419312E-1,1.892334E0,9.075E1,2.610016E-1,2.2425E2,-8.6997986E-2,1.9675E2,1.5007324E0,8.482666E-1,8.75E0,-3.1103516E0,-2.1071777E0,1.8270264E0,1.9793701E0,1.5825E2,3.25E0,-5.3092957E-2,6.025E1,1.4925E2,2.9580078E0,2.261963E0,-4.1067505E-1,-3.828125E0,1.475E1,-3.064209E0,1.979248E0,3.575E1,2.925E1,3.475E1,-2.1749878E-1,7.9E1,7E0,3.045E2,3.25E0,5.475E1,-1.6721191E0,-7.6289315E0,2.2402344E0,-6.281738E-1,2.6101074E0,-2.8901367E0,1.0439453E0,1.0005493E0,2.1750488E0,3.0014648E0,8.0474854E-1,-1.935669E0,7.061168E0,4.830207E1,4.0044365E0,7.1988587E0,-5.326094E0,6.75E0,3.49459E1,9.902559E0,2.3363495E0,2.9731803E0,3.7833097E0,1.079678E1,3.6103547E0,5.066124E0,1.18309E0,5.038068E0,8.451135E0,2.3128264E-1,8.628046E0,-3.8957205E-1,1.4420004E1,4.809693E0,8.221444E-1,1.5147369E1,3.868364E0,4.32114E0,1.8196213E1,2.448626E0,1.2497142E1,8.212978E0,5.8419166E0,1.6813967E1,8.344292E0,-4.035566E0,1.5450276E1,7.5612605E-1,8.556733E0,6.4719734E0,1.1354235E1,-3.0239756E0,5.5036564E0,6.411816E0,1.836504E1,1.4052707E1,5.2584667E0,2.4785936E0,-4.421698E0,1.656154E1,-4.6425048E-1,7.4914784E0,2.5618486E0,1.9924713E1,1.3488726E1,4.4874334E0,2.6126696E1,1.5329576E1,2.3858495E0],"split_indices":[24,14,24,24,24,12,2,20,7,16,6,24,3,24,18,25,4,9,2,15,7,7,4,14,8,10,14,2,1,4,22,15,24,22,10,17,20,24,21,14,8,25,8,14,16,0,0,16,1,19,12,0,15,1,6,6,0,0,0,0,0,8,0,0,0,0,0,0,0,0,0,0,0,0,0,0,0,0,0,0,0,0,0,0,0,0,0,0,0,0,0,0,0,0,0,0,0,0,0,0,0,0,0,0,0,0,0,0,0,0,0,0,0],"split_type":[0,0,0,0,0,0,0,0,0,0,0,0,0,0,0,0,0,0,0,0,0,0,0,0,0,0,0,0,0,0,0,0,0,0,0,0,0,0,0,0,0,0,0,0,0,0,0,0,0,0,0,0,0,0,0,0,0,0,0,0,0,0,0,0,0,0,0,0,0,0,0,0,0,0,0,0,0,0,0,0,0,0,0,0,0,0,0,0,0,0,0,0,0,0,0,0,0,0,0,0,0,0,0,0,0,0,0,0,0,0,0,0,0],"sum_hessian":[5.884E3,5.573E3,3.11E2,4.469E3,1.104E3,2.65E2,4.6E1,3.85E3,6.19E2,8.09E2,2.95E2,1.48E2,1.17E2,2.6E1,2E1,2.651E3,1.199E3,5.94E2,2.5E1,2.11E2,5.98E2,2.9E2,5E0,8.8E1,6E1,2.5E1,9.2E1,1.9E1,7E0,7E0,1.3E1,7.09E2,1.942E3,6.07E2,5.92E2,5.68E2,2.6E1,1.7E1,8E0,7E0,2.04E2,4.7E1,5.51E2,2.7E2,2E1,3E0,2E0,8.3E1,5E0,3.3E1,2.7E1,7E0,1.8E1,7E0,8.5E1,1.7E1,2E0,6E0,1E0,6E0,1E0,7E0,6E0,4E0,7.05E2,9.25E2,1.017E3,8E0,5.99E2,5.65E2,2.7E1,5.36E2,3.2E1,2.4E1,2E0,3E0,1.4E1,3E0,5E0,6E0,1E0,2.02E2,2E0,4.3E1,4E0,2.63E2,2.88E2,9E0,2.61E2,1E0,1.9E1,1E0,1E0,2.5E1,5.8E1,3E0,2E0,3E0,3E1,1.3E1,1.4E1,3E0,4E0,1.5E1,3E0,4E0,3E0,5.3E1,3.2E1,1E0,1.6E1,4E0,3E0],"tree_param":{"num_deleted":"0","num_feature":"26","num_nodes":"113","size_leaf_vector":"0"}},{"base_weights":[1.1640022E1,9.94425E0,3.1617456E1,8.050459E0,1.3992393E1,2.6342781E1,5.4578163E1,7.4949718E0,1.2095538E1,1.2133573E1,1.7362179E1,2.9308569E1,2.063853E1,4.4205612E1,6.414517E1,7.174202E0,1.408708E1,1.27071905E1,-1.5374357E0,1.600799E1,1.1009449E1,1.671925E1,3.3099865E1,1.9101484E1,3.2588627E1,1.6109684E1,3.7654064E1,9.968237E0,4.7380142E1,8.247339E1,4.5418663E1,9.710788E0,6.4294457E0,8.206398E0,2.1650951E1,1.1658518E1,2.2017475E1,2.316562E1,-7.259482E0,1.4139826E1,2.9692688E1,1.3318899E1,8.098664E0,1.7796267E1,1.0373128E1,6.3802784E1,1.8510437E1,1.3305749E1,3.992343E1,3.6792686E1,2.305812E1,2.1313461E1,8.582042E0,2.6289959E1,7.304677E1,2.7193844E0,1.3894343E1,5.6216404E1,3.3457134E1,6.1000874E1,1.2240913E2,5.5356808E1,1.4794795E1,8.059509E0,1.5131834E1,4.0449376E0,7.1032996E0,2.0254515E1,3.215925E0,1.3025439E1,3.5843475E1,1.2359576E1,-9.353275E0,9.580297E0,3.656878E1,-1.2335598E1,4.1026626E0,1.32506695E1,4.37928E1,4.485945E1,1.0238338E1,3.9397666E0,1.4979234E1,6.462903E0,1.726595E1,3.103354E0,1.8429976E1,6.397962E-1,1.8107008E1,7.5360603E0,7.192456E1,3.1643457E1,6.1529775E0,1.9704037E1,8.3634835E-1,4.7972824E1,9.819087E0,3.815026E1,3.2828171E0,6.4139333E0,2.964234E1,1.4122104E1,3.0727568E1,6.540729E0,4.919991E1,5.9833956E0,3.5367462E1,2.978263E1,8.723318E1,-2.1268349E0,5.8965042E1,2.4091333E1,5.2989956E1,6.604029E1,1.8829779E1,3.5943863E1,1.325134E2,2.9505695E1,8.807187E1,-1.5090599E1,2.2290794E1],"categories":[],"categories_nodes":[],"categories_segments":[],"categories_sizes":[],"default_left":[1,1,1,1,1,1,1,1,1,1,1,1,1,1,1,1,1,1,1,1,1,1,1,1,1,1,1,1,1,1,1,1,1,1,1,1,1,0,1,1,1,1,1,1,1,1,1,1,1,1,1,1,1,1,1,0,0,1,1,1,1,1,1,0,0,0,0,0,0,0,0,0,0,0,0,0,0,0,0,0,0,0,0,0,0,0,0,0,0,0,0,0,0,0,0,0,0,0,0,0,0,0,0,0,0,0,0,0,0,0,0,0,0,0,0,0,0,0,0,0,0],"id":4,"left_children":[1,3,5,7,9,11,13,15,17,19,21,23,25,27,29,31,33,35,37,39,41,43,45,47,49,51,53,55,57,59,61,63,65,67,69,71,73,-1,75,77,79,81,83,85,87,89,91,93,95,97,99,101,103,105,107,-1,-1,109,111,113,115,117,119,-1,-1,-1,-1,-1,-1,-1,-1,-1,-1,-1,-1,-1,-1,-1,-1,-1,-1,-1,-1,-1,-1,-1,-1,-1,-1,-1,-1,-1,-1,-1,-1,-1,-1,-1,-1,-1,-1,-1,-1,-1,-1,-1,-1,-1,-1,-1,-1,-1,-1,-1,-1,-1,-1,-1,-1,-1,-1],"loss_changes":[1.9905275E5,4.1484875E4,5.427297E4,8.220953E3,1.0613219E4,5.7561406E3,5.599328E3,6.781797E3,3.7302305E3,4.6886562E3,5.638953E3,7.5800625E3,9.565422E3,4.309961E3,1.06695625E4,5.8052188E3,6.4944336E3,3.902539E3,2.9952112E3,5.9459023E3,5.733828E3,3.8479688E3,9.121559E3,6.9508535E3,6.523922E3,3.969338E3,8.939176E3,1.045148E2,3.04025E3,9.683359E3,6.180926E3,6.1710547E3,3.834039E3,5.1056807E3,7.4902793E3,5.7868438E3,7.250701E3,0E0,1.0310933E3,5.246629E3,8.0974375E3,7.4625E3,5.691664E3,4.62625E3,6.61274E3,2.656873E3,2.5642417E3,3.9726611E3,2.6791348E3,5.6067656E3,6.275625E3,3.7634746E3,3.4093171E3,3.843707E3,1.084543E3,0E0,0E0,3.8137969E3,2.016332E3,1.9442422E3,4.7896875E2,1.1778629E4,1.9045277E3,0E0,0E0,0E0,0E0,0E0,0E0,0E0,0E0,0E0,0E0,0E0,0E0,0E0,0E0,0E0,0E0,0E0,0E0,0E0,0E0,0E0,0E0,0E0,0E0,0E0,0E0,0E0,0E0,0E0,0E0,0E0,0E0,0E0,0E0,0E0,0E0,0E0,0E0,0E0,0E0,0E0,0E0,0E0,0E0,0E0,0E0,0E0,0E0,0E0,0E0,0E0,0E0,0E0,0E0,0E0,0E0,0E0,0E0],"parents":[2147483647,0,0,1,1,2,2,3,3,4,4,5,5,6,6,7,7,8,8,9,9,10,10,11,11,12,12,13,13,14,14,15,15,16,16,17,17,18,18,19,19,20,20,21,21,22,22,23,23,24,24,25,25,26,26,27,27,28,28,29,29,30,30,31,31,32,32,33,33,34,34,35,35,36,36,38,38,39,39,40,40,41,41,42,42,43,43,44,44,45,45,46,46,47,47,48,48,49,49,50,50,51,51,52,52,53,53,54,54,57,57,58,58,59,59,60,60,61,61,62,62],"right_children":[2,4,6,8,10,12,14,16,18,20,22,24,26,28,30,32,34,36,38,40,42,44,46,48,50,52,54,56,58,60,62,64,66,68,70,72,74,-1,76,78,80,82,84,86,88,90,92,94,96,98,100,102,104,106,108,-1,-1,110,112,114,116,118,120,-1,-1,-1,-1,-1,-1,-1,-1,-1,-1,-1,-1,-1,-1,-1,-1,-1,-1,-1,-1,-1,-1,-1,-1,-1,-1,-1,-1,-1,-1,-1,-1,-1,-1,-1,-1,-1,-1,-1,-1,-1,-1,-1,-1,-1,-1,-1,-1,-1,-1,-1,-1,-1,-1,-1,-1,-1,-1],"split_conditions":[5.725E1,3.625E1,1.1825E2,3.1103516E0,3.425E1,2.9575E2,1.585E2,3.4825E2,4.25E0,-1.1309814E0,3.775E1,6.090088E-1,2.0878906E0,-2.0202637E0,5.0725E2,-5.220337E-1,2.71875E0,2.610016E-1,5.75E0,2.1748047E0,1.5877686E0,1.825E1,5.675E1,1.345E2,8.0474854E-1,2.025E1,7.25E0,2.1313477E0,1.9175E2,2.2425E2,2.8059082E0,2.375E1,1.9075E2,8.0474854E-1,2.525E1,2.2402344E0,4.3499756E-1,6.9496865E0,6.25E0,3.55E1,1.4354248E0,-8.892212E-1,2.4577637E0,-3.1103516E0,7.575E1,2.75E0,6.25E0,8.6997986E-2,4.5E0,2.610016E-1,2.610016E-1,1.105E2,3.7409668E0,7.575E1,2.8710938E0,8.158154E-1,4.168303E0,9.725E1,1.2525E2,1.49E2,9.3518066E-1,2.1965332E0,2.8710938E0,2.4178529E0,4.5395503E0,1.2134813E0,2.13099E0,6.0763545E0,9.647775E-1,3.9076319E0,1.0753043E1,3.707873E0,-2.8059826E0,2.8740892E0,1.0970634E1,-3.7006795E0,1.2307988E0,3.975201E0,1.3137841E1,1.3457836E1,3.0715017E0,1.1819301E0,4.49377E0,1.938871E0,5.179785E0,9.3100625E-1,5.5289927E0,1.9193886E-1,5.4321027E0,2.2608182E0,2.157737E1,9.493037E0,1.8458933E0,5.911211E0,2.5090453E-1,1.4391848E1,2.9457262E0,1.1445079E1,9.8484516E-1,1.92418E0,8.892702E0,4.2366314E0,9.21827E0,1.9622188E0,1.4759974E1,1.7950188E0,1.0610239E1,8.93479E0,2.6169954E1,-6.380505E-1,1.7689514E1,7.2274003E0,1.5896987E1,1.9812088E1,5.648934E0,1.0783159E1,3.975402E1,8.851709E0,2.6421562E1,-4.5271797E0,6.6872387E0],"split_indices":[24,14,24,12,24,25,24,25,11,21,23,12,7,19,14,15,1,21,23,16,0,2,20,14,7,23,5,1,14,24,1,24,25,3,24,3,6,0,8,2,19,22,4,21,14,2,5,16,5,10,16,14,15,14,1,0,0,14,17,2,0,1,1,0,0,0,0,0,0,0,0,0,0,0,0,0,0,0,0,0,0,0,0,0,0,0,0,0,0,0,0,0,0,0,0,0,0,0,0,0,0,0,0,0,0,0,0,0,0,0,0,0,0,0,0,0,0,0,0,0,0],"split_type":[0,0,0,0,0,0,0,0,0,0,0,0,0,0,0,0,0,0,0,0,0,0,0,0,0,0,0,0,0,0,0,0,0,0,0,0,0,0,0,0,0,0,0,0,0,0,0,0,0,0,0,0,0,0,0,0,0,0,0,0,0,0,0,0,0,0,0,0,0,0,0,0,0,0,0,0,0,0,0,0,0,0,0,0,0,0,0,0,0,0,0,0,0,0,0,0,0,0,0,0,0,0,0,0,0,0,0,0,0,0,0,0,0,0,0,0,0,0,0,0,0],"sum_hessian":[5.884E3,5.425E3,4.59E2,3.698E3,1.727E3,3.75E2,8.4E1,3.254E3,4.44E2,1.116E3,6.11E2,2.44E2,1.31E2,4.3E1,4.1E1,3.105E3,1.49E2,4.25E2,1.9E1,2.48E2,8.68E2,5.89E2,2.2E1,6.1E1,1.83E2,1.05E2,2.6E1,4E0,3.9E1,1.9E1,2.2E1,7.02E2,2.403E3,8.5E1,6.4E1,3.84E2,4.1E1,3E0,1.6E1,2.2E2,2.8E1,4.82E2,3.86E2,5.02E2,8.7E1,6E0,1.6E1,4.9E1,1.2E1,1.25E2,5.8E1,6.1E1,4.4E1,2.1E1,5E0,2E0,2E0,2.2E1,1.7E1,1.4E1,5E0,1.6E1,6E0,5.4E2,1.62E2,5.31E2,1.872E3,2.4E1,6.1E1,4.1E1,2.3E1,3.72E2,1.2E1,2.3E1,1.8E1,1.1E1,5E0,2.15E2,5E0,1.5E1,1.3E1,7.3E1,4.09E2,3.29E2,5.7E1,2.1E1,4.81E2,3.9E1,4.8E1,1E0,5E0,7E0,9E0,3.2E1,1.7E1,9E0,3E0,1.2E2,5E0,1.7E1,4.1E1,3.6E1,2.5E1,4.3E1,1E0,7E0,1.4E1,2E0,3E0,1E0,2.1E1,1.3E1,4E0,1.2E1,2E0,1E0,4E0,1E1,6E0,1E0,5E0],"tree_param":{"num_deleted":"0","num_feature":"26","num_nodes":"121","size_leaf_vector":"0"}},{"base_weights":[8.220735E0,7.1956687E0,2.650759E1,6.348072E0,1.3674402E1,2.2121902E1,4.283286E1,5.6381936E0,8.764109E0,1.2353752E1,2.1270187E1,1.5267963E1,2.5294804E1,6.965525E1,3.892456E1,4.6910644E0,7.5095477E0,1.3128389E1,7.0433216E0,1.5169578E1,7.982928E0,2.9977566E1,1.0694132E1,2.7758509E1,1.0717645E1,1.9033978E1,3.1184387E1,1.0312897E1,9.132961E1,-1.128275E1,4.0884163E1,9.4157295E0,4.400482E0,3.7849452E0,8.450671E0,4.0009937E1,1.2207005E1,7.5892E0,-1.1013952E1,6.400643E1,1.468259E1,2.5985369E1,6.1335225E0,5.532369E0,3.735731E1,1.4894986E0,3.0311953E1,3.644275E1,9.091276E0,2.4198606E1,3.5513558E0,2.5398092E1,8.428889E0,1.8696297E1,3.9143185E1,1.4264938E1,1.2044067E0,2.8198925E1,4.863597E1,-1.4130247E0,1.1557559E1,1.3067625E1,4.2548957E0,4.590027E0,-1.4856454E1,8.775757E0,-7.4475126E0,5.327482E1,6.7939043E0,5.6420803E0,1.4706446E1,7.029111E0,2.2969868E1,1.7257587E0,-1.5356399E1,1.6492802E1,4.385284E0,3.906524E1,1.1732272E1,-1.0398456E0,1.1491208E1,2.147604E1,-7.11693E0,5.0315216E1,1.7628534E1,5.5171394E0,-2.7076363E1,4.4668835E1,-4.464204E0,4.545361E1,1.6852667E1,5.119629E-1,2.3219477E1,-4.543709E0,2.7463257E1,7.606194E0,-1.4125626E1,-1.253659E1,2.7976473E1,-1.1835684E1,1.6521257E1,2.0112663E1,-1.4730104E1,4.7829178E1,2.1996826E1,4.0122063E1,1.5023803E1,1.6467028E1,5.494121E1],"categories":[],"categories_nodes":[],"categories_segments":[],"categories_sizes":[],"default_left":[1,1,1,1,1,1,1,1,1,1,1,1,1,1,1,1,1,1,1,1,1,1,1,1,1,1,1,1,0,0,1,1,1,1,1,1,1,1,1,0,1,1,1,1,1,1,1,1,1,1,1,1,1,1,1,0,0,1,1,0,0,0,0,0,0,0,0,0,0,0,0,0,0,0,0,0,0,0,0,0,0,0,0,0,0,0,0,0,0,0,0,0,0,0,0,0,0,0,0,0,0,0,0,0,0,0,0,0,0],"id":5,"left_children":[1,3,5,7,9,11,13,15,17,19,21,23,25,27,29,31,33,35,37,39,41,43,45,47,49,51,53,55,-1,-1,57,59,61,63,65,67,69,71,73,-1,75,77,79,81,83,85,87,89,91,93,95,97,99,101,103,-1,-1,105,107,-1,-1,-1,-1,-1,-1,-1,-1,-1,-1,-1,-1,-1,-1,-1,-1,-1,-1,-1,-1,-1,-1,-1,-1,-1,-1,-1,-1,-1,-1,-1,-1,-1,-1,-1,-1,-1,-1,-1,-1,-1,-1,-1,-1,-1,-1,-1,-1,-1,-1],"loss_changes":[1.1012497E5,3.0521969E4,2.1390875E4,8.407703E3,6.1974375E3,5.0070234E3,4.1026406E3,6.724758E3,8.303711E3,6.660328E3,8.335852E3,4.306207E3,5.601211E3,8.061578E3,6.266086E3,3.4388828E3,4.4548125E3,7.3135977E3,8.0086797E3,7.0037344E3,7.098671E3,8.9936875E3,7.900143E3,3.0730146E3,5.8071787E3,5.45525E3,7.716336E3,9.081061E1,0E0,0E0,4.2335312E3,3.4025586E3,2.9601406E3,3.9702327E3,5.342172E3,4.044125E3,4.9380703E3,6.566504E3,1.3542175E3,0E0,6.116258E3,3.270248E3,7.660046E3,2.774635E3,9.083117E3,3.7160278E3,7.189293E3,1.7053145E3,9.5779456E2,2.09529E3,3.0462114E3,5.4368516E3,5.607157E3,1.9533047E3,6.5435E3,0E0,0E0,3.1673457E3,5.9915938E3,0E0,0E0,0E0,0E0,0E0,0E0,0E0,0E0,0E0,0E0,0E0,0E0,0E0,0E0,0E0,0E0,0E0,0E0,0E0,0E0,0E0,0E0,0E0,0E0,0E0,0E0,0E0,0E0,0E0,0E0,0E0,0E0,0E0,0E0,0E0,0E0,0E0,0E0,0E0,0E0,0E0,0E0,0E0,0E0,0E0,0E0,0E0,0E0,0E0,0E0],"parents":[2147483647,0,0,1,1,2,2,3,3,4,4,5,5,6,6,7,7,8,8,9,9,10,10,11,11,12,12,13,13,14,14,15,15,16,16,17,17,18,18,19,19,20,20,21,21,22,22,23,23,24,24,25,25,26,26,27,27,30,30,31,31,32,32,33,33,34,34,35,35,36,36,37,37,38,38,40,40,41,41,42,42,43,43,44,44,45,45,46,46,47,47,48,48,49,49,50,50,51,51,52,52,53,53,54,54,57,57,58,58],"right_children":[2,4,6,8,10,12,14,16,18,20,22,24,26,28,30,32,34,36,38,40,42,44,46,48,50,52,54,56,-1,-1,58,60,62,64,66,68,70,72,74,-1,76,78,80,82,84,86,88,90,92,94,96,98,100,102,104,-1,-1,106,108,-1,-1,-1,-1,-1,-1,-1,-1,-1,-1,-1,-1,-1,-1,-1,-1,-1,-1,-1,-1,-1,-1,-1,-1,-1,-1,-1,-1,-1,-1,-1,-1,-1,-1,-1,-1,-1,-1,-1,-1,-1,-1,-1,-1,-1,-1,-1,-1,-1,-1],"split_conditions":[6.875E1,6.825E1,1.2825E2,2.9975E2,1.6530762E0,-2.3924255E-1,-1.1744385E0,3.125E1,5.0024414E-1,2.7675E2,8.975E1,-1.1309814E0,1.5007324E0,3.2624817E-1,-8.9172363E-1,-1.2180176E0,-1.95755E-1,3.0175E2,6.325E1,-1.8922119E0,-1.8270264E0,2.1E1,1.1825E2,8E0,8.0474854E-1,2.1965332E0,1.935791E0,-1.5223694E-1,2.7398886E1,-3.3848252E0,1.64E2,2.085E2,-3.4799805E0,2.5229492E0,4.775E1,3.044815E-1,2.275E1,4.25E1,-2.0201416E0,1.9201931E1,2.925E1,1.95755E-1,-2.1751404E-2,7.525E1,8.6997986E-2,3.828125E0,2.8493652E0,1.6530762E0,4.348755E-2,1.7182617E0,1.7182617E0,-2.3273926E0,-1.0618591E-1,8.825E1,8.4820557E-1,4.279482E0,3.6132205E-1,1.9175E2,-7.8045654E-1,-4.2390743E-1,3.4672678E0,3.9202876E0,1.2764688E0,1.3770081E0,-4.4569364E0,2.6327271E0,-2.234254E0,1.5982446E1,2.0381713E0,1.6926242E0,4.411934E0,2.1087334E0,6.8909607E0,5.177276E-1,-4.60692E0,4.9478407E0,1.3155853E0,1.1719572E1,3.5196817E0,-3.119537E-1,3.4473627E0,6.4428124E0,-2.1350791E0,1.5094565E1,5.2885604E0,1.655142E0,-8.12291E0,1.3400651E1,-1.3392612E0,1.3636084E1,5.0558004E0,1.5358888E-1,6.965843E0,-1.3631127E0,8.238977E0,2.2818582E0,-4.237688E0,-3.760977E0,8.392942E0,-3.5507052E0,4.9563775E0,6.033799E0,-4.4190316E0,1.4348754E1,6.599048E0,1.2036619E1,4.507141E0,4.9401083E0,1.6482365E1],"split_indices":[24,14,24,25,15,9,9,14,3,25,14,9,0,0,9,21,3,25,14,3,18,24,14,2,0,1,12,0,0,0,24,25,18,4,17,15,14,17,22,0,2,6,18,14,21,12,1,12,6,1,7,21,16,20,10,0,0,14,10,0,0,0,0,0,0,0,0,0,0,0,0,0,0,0,0,0,0,0,0,0,0,0,0,0,0,0,0,0,0,0,0,0,0,0,0,0,0,0,0,0,0,0,0,0,0,0,0,0,0],"split_type":[0,0,0,0,0,0,0,0,0,0,0,0,0,0,0,0,0,0,0,0,0,0,0,0,0,0,0,0,0,0,0,0,0,0,0,0,0,0,0,0,0,0,0,0,0,0,0,0,0,0,0,0,0,0,0,0,0,0,0,0,0,0,0,0,0,0,0,0,0,0,0,0,0,0,0,0,0,0,0,0,0,0,0,0,0,0,0,0,0,0,0,0,0,0,0,0,0,0,0,0,0,0,0,0,0,0,0,0,0],"sum_hessian":[5.884E3,5.573E3,3.11E2,4.93E3,6.43E2,2.47E2,6.4E1,3.813E3,1.117E3,5.5E2,9.3E1,8E1,1.67E2,6E0,5.8E1,2.534E3,1.279E3,3.14E2,8.03E2,3.33E2,2.17E2,5E1,4.3E1,2E1,6E1,8.3E1,8.4E1,2E0,4E0,2E0,5.6E1,1.45E2,2.389E3,2.59E2,1.02E3,9E0,3.05E2,7.8E2,2.3E1,2E0,3.31E2,1.9E1,1.98E2,1.2E1,3.8E1,3E1,1.3E1,1.3E1,7E0,2E1,4E1,5.1E1,3.2E1,3.4E1,5E1,1E0,1E0,2.3E1,3.3E1,2.4E1,1.21E2,3.8E1,2.351E3,2.49E2,1E1,1E3,2E1,6E0,3E0,8.5E1,2.2E2,7.54E2,2.6E1,6E0,1.7E1,2.81E2,5E1,9E0,1E1,8.5E1,1.13E2,5E0,7E0,2.2E1,1.6E1,2.7E1,3E0,9E0,4E0,8E0,5E0,5E0,2E0,2E0,1.8E1,3.3E1,7E0,3E0,4.8E1,9E0,2.3E1,3.3E1,1E0,3.2E1,1.8E1,1.1E1,1.2E1,6E0,2.7E1],"tree_param":{"num_deleted":"0","num_feature":"26","num_nodes":"109","size_leaf_vector":"0"}},{"base_weights":[5.7943907E0,4.7758827E0,1.5528384E1,3.9153402E0,6.7074885E0,1.2869178E1,2.8325064E1,3.7913334E0,1.8913645E1,6.460642E0,1.8539877E1,2.044185E1,1.1352702E1,5.106529E1,2.535149E1,3.503147E0,7.0667377E0,1.312759E1,4.5218407E1,9.692776E0,5.7336597E0,5.1930054E1,7.552904E0,2.8199015E1,1.2755429E1,-3.280712E-1,1.2963624E1,8.610373E0,6.80302E1,1.731506E1,3.1352934E1,2.2526395E0,4.2194257E0,6.7790294E0,4.582646E1,2.5663345E1,4.9814053E0,8.953502E0,4.368571E1,1.7837662E1,5.514088E0,4.042132E0,6.7219E1,1.9907177E1,-8.519344E0,3.9279476E1,1.974658E1,1.8239178E1,-5.5197344E0,5.0047956E0,-2.1093443E1,8.527912E0,1.707365E1,1.0797999E1,1.0237465E0,7.5051975E0,2.4554262E1,5.1657448E1,2.233533E1,1.3357177E1,1.9156604E0,6.6977105E0,3.4414227E0,9.997612E0,3.53639E0,-2.6231213E0,2.9097744E1,-1.337107E1,1.1656864E1,5.0666645E1,8.338795E0,5.1448853E1,2.4350014E0,-1.9265665E0,2.3434757E1,-2.2135806E0,5.852401E0,1.3579573E1,-7.5163746E0,4.4458916E1,1.0064331E1,-1.6157322E1,5.4052873E0,5.2602882E0,4.1333687E1,1.3444223E1,4.632172E1,2.0520267E1,-9.891088E0,1.5843298E1,-1.6938648E1,1.1312711E1,-1.0130739E1,-7.7945023E0,-2.567949E1,-5.0779057E0,1.2334739E1,1.6303028E1,5.6078457E1,2.18238E1,3.1928927E-1,-1.1134598E1,2.678395E1,-4.58873E0,6.1414204E1,1.776437E1,4.6208214E1],"categories":[],"categories_nodes":[],"categories_segments":[],"categories_sizes":[],"default_left":[1,1,1,1,1,1,1,1,1,1,1,1,1,1,1,1,1,1,0,1,1,1,1,1,1,1,1,1,0,1,1,1,1,1,0,1,1,1,1,1,1,1,0,1,1,1,1,1,1,1,1,1,1,0,0,1,1,1,1,0,0,0,0,0,0,0,0,0,0,0,0,0,0,0,0,0,0,0,0,0,0,0,0,0,0,0,0,0,0,0,0,0,0,0,0,0,0,0,0,0,0,0,0,0,0,0,0],"id":6,"left_children":[1,3,5,7,9,11,13,15,17,19,21,23,25,27,29,31,33,35,-1,37,39,41,43,45,47,49,51,53,-1,55,57,59,61,63,-1,65,67,69,71,73,75,77,-1,79,81,83,85,87,89,91,93,95,97,-1,-1,99,101,103,105,-1,-1,-1,-1,-1,-1,-1,-1,-1,-1,-1,-1,-1,-1,-1,-1,-1,-1,-1,-1,-1,-1,-1,-1,-1,-1,-1,-1,-1,-1,-1,-1,-1,-1,-1,-1,-1,-1,-1,-1,-1,-1,-1,-1,-1,-1,-1,-1],"loss_changes":[5.827061E4,8.83175E3,1.8589656E4,6.789426E3,4.6732266E3,5.084914E3,5.129297E3,3.4300195E3,3.972416E3,3.7251016E3,1.1714057E4,4.171795E3,7.3051797E3,6.616674E3,3.604918E3,3.005461E3,2.9790312E3,2.5272437E3,0E0,6.9971133E3,3.399168E3,5.585539E3,5.33218E3,2.68967E3,4.1093315E3,5.421038E3,6.071129E3,5.5332397E1,0E0,2.5853223E3,7.634922E3,4.5695835E3,4.1011836E3,3.0330342E3,0E0,1.0477969E3,2.2385552E3,6.9878496E3,1.7961318E3,2.5894604E3,3.3959492E3,4.327849E2,0E0,3.177435E3,1.3636072E3,8.3081055E2,3.229419E3,2.192166E3,2.7077903E3,3.838079E3,4.0973682E2,8.660602E3,4.375949E3,0E0,0E0,1.8450906E3,2.04888E3,7.9647344E3,2.9984102E3,0E0,0E0,0E0,0E0,0E0,0E0,0E0,0E0,0E0,0E0,0E0,0E0,0E0,0E0,0E0,0E0,0E0,0E0,0E0,0E0,0E0,0E0,0E0,0E0,0E0,0E0,0E0,0E0,0E0,0E0,0E0,0E0,0E0,0E0,0E0,0E0,0E0,0E0,0E0,0E0,0E0,0E0,0E0,0E0,0E0,0E0,0E0,0E0],"parents":[2147483647,0,0,1,1,2,2,3,3,4,4,5,5,6,6,7,7,8,8,9,9,10,10,11,11,12,12,13,13,14,14,15,15,16,16,17,17,19,19,20,20,21,21,22,22,23,23,24,24,25,25,26,26,27,27,29,29,30,30,31,31,32,32,33,33,35,35,36,36,37,37,38,38,39,39,40,40,41,41,43,43,44,44,45,45,46,46,47,47,48,48,49,49,50,50,51,51,52,52,55,55,56,56,57,57,58,58],"right_children":[2,4,6,8,10,12,14,16,18,20,22,24,26,28,30,32,34,36,-1,38,40,42,44,46,48,50,52,54,-1,56,58,60,62,64,-1,66,68,70,72,74,76,78,-1,80,82,84,86,88,90,92,94,96,98,-1,-1,100,102,104,106,-1,-1,-1,-1,-1,-1,-1,-1,-1,-1,-1,-1,-1,-1,-1,-1,-1,-1,-1,-1,-1,-1,-1,-1,-1,-1,-1,-1,-1,-1,-1,-1,-1,-1,-1,-1,-1,-1,-1,-1,-1,-1,-1,-1,-1,-1,-1,-1],"split_conditions":[5.175E1,3.625E1,1.1475E2,2.5881348E0,4.3496094E0,-9.9798584E-1,-1.1744385E0,3.4799805E0,3.475E1,-1.3049316E0,-1.7399597E-1,1E2,-3.0194092E-1,3.2624817E-1,2.610016E-1,6.525421E-2,8E0,1.5007324E0,1.3565522E1,6.275E1,-3.4799805E0,2.2185059E0,1.2180176E0,-2.1751404E-2,2.4360352E0,6.825E1,1.0225E2,1.7399597E-1,2.040906E1,-2.1751404E-2,5.872803E-1,-3.3061523E0,4.567566E-1,1.1962891E0,1.3747939E1,-1.3676758E0,2.0444336E0,-1.9765625E0,4.55E1,1.775E1,-2.1750488E0,8.0474854E-1,2.01657E1,1.8704834E0,4.698242E0,1.7399597E-1,1.1309814E0,3.25E0,1.95755E-1,5.75E0,1.6965332E0,2.425E1,1.3049316E0,3.2394E0,3.0712396E-1,-8.699341E-1,-1.0439453E0,-8.2647705E-1,1.2180176E0,4.007153E0,5.7469815E-1,2.0093133E0,1.0324268E0,2.9992838E0,1.060917E0,-7.869364E-1,8.729323E0,-4.011321E0,3.4970593E0,1.5199994E1,2.5016384E0,1.5434656E1,7.3050046E-1,-5.7796997E-1,7.0304275E0,-6.640742E-1,1.7557203E0,4.073872E0,-2.2549124E0,1.3337675E1,3.0192995E0,-4.8471966E0,1.6215862E0,1.5780865E0,1.2400106E1,4.033267E0,1.3896517E1,6.1560807E0,-2.9673264E0,4.75299E0,-5.0815945E0,3.3938134E0,-3.039222E0,-2.3383508E0,-7.703847E0,-1.5233718E0,3.7004218E0,4.8909087E0,1.6823538E1,6.54714E0,9.578679E-2,-3.3403795E0,8.035186E0,-1.376619E0,1.8424261E1,5.3293114E0,1.3862465E1],"split_indices":[24,14,24,7,12,7,9,12,24,21,9,14,7,0,6,3,8,0,0,20,15,13,16,9,1,17,14,0,0,21,6,15,3,4,0,19,0,16,2,17,15,0,0,1,12,0,3,11,3,5,13,17,21,0,0,18,9,18,19,0,0,0,0,0,0,0,0,0,0,0,0,0,0,0,0,0,0,0,0,0,0,0,0,0,0,0,0,0,0,0,0,0,0,0,0,0,0,0,0,0,0,0,0,0,0,0,0],"split_type":[0,0,0,0,0,0,0,0,0,0,0,0,0,0,0,0,0,0,0,0,0,0,0,0,0,0,0,0,0,0,0,0,0,0,0,0,0,0,0,0,0,0,0,0,0,0,0,0,0,0,0,0,0,0,0,0,0,0,0,0,0,0,0,0,0,0,0,0,0,0,0,0,0,0,0,0,0,0,0,0,0,0,0,0,0,0,0,0,0,0,0,0,0,0,0,0,0,0,0,0,0,0,0,0,0,0,0],"sum_hessian":[5.884E3,5.328E3,5.56E2,3.688E3,1.64E3,4.62E2,9.4E1,3.659E3,2.9E1,1.608E3,3.2E1,7.5E1,3.87E2,9E0,8.5E1,3.365E3,2.94E2,2.5E1,4E0,2.93E2,1.315E3,7E0,2.5E1,3.6E1,3.9E1,4.7E1,3.4E2,3E0,6E0,3.8E1,4.7E1,1.227E3,2.138E3,2.93E2,1E0,9E0,1.6E1,2.88E2,5E0,2.2E1,1.293E3,2E0,5E0,1.4E1,1.1E1,1.4E1,2.2E1,3E1,9E0,3.8E1,9E0,1.65E2,1.75E2,2E0,1E0,1.7E1,2.1E1,1.3E1,3.4E1,3.5E1,1.192E3,5.09E2,1.629E3,1.46E2,1.47E2,1E0,8E0,4E0,1.2E1,3E0,2.85E2,4E0,1E0,5E0,1.7E1,5.4E1,1.239E3,1E0,1E0,3E0,1.1E1,7E0,4E0,1E0,1.3E1,1.9E1,3E0,2.8E1,2E0,3E0,6E0,2.7E1,1.1E1,3E0,6E0,3.6E1,1.29E2,1.73E2,2E0,5E0,1.2E1,1E0,2E1,2E0,1.1E1,3E1,4E0],"tree_param":{"num_deleted":"0","num_feature":"26","num_nodes":"107","size_leaf_vector":"0"}},{"base_weights":[4.097442E0,3.614604E0,1.5150731E1,3.099472E0,7.269364E0,4.8977757E1,1.4100982E1,1.896432E0,3.8037884E0,6.2359905E0,2.1089993E1,2.1834871E1,5.5467934E1,1.1858158E1,2.4697659E1,1.8280939E0,3.2601593E1,2.8424017E0,5.0411983E0,5.9222054E0,2.3897135E1,-8.105326E0,2.627225E1,1.3592332E1,2.9915347E0,3.667269E1,1.0290241E1,7.0497313E0,1.6127086E0,5.386238E-1,4.3109707E1,3.3752847E0,-2.2178752E0,4.616978E0,1.2259254E1,1.0019067E1,4.566964E0,3.1942911E1,1.8312998E0,1.174883E1,-1.6681517E1,3.849773E1,1.0090235E1,1.4230579E1,-1.5973899E1,-1.8738161E0,3.995012E1,4.1457954E1,-7.4533057E0,-1.0240363E1,1.6062916E1,3.339934E1,4.1482615E0,1.4604427E0,9.049411E0,-2.1864138E0,3.8761544E0,2.5636435E0,-7.7678795E0,4.8187804E0,-9.888989E0,2.9787437E1,8.103548E0,9.194119E0,4.957664E1,1.9859445E-1,7.611819E0,1.4426823E0,3.609399E1,5.697329E0,-4.8833942E0,-6.849881E0,-2.4229856E1,-4.4008293E0,4.06477E1,5.8491264E-2,3.816742E1,1.1789675E1,2.3216696E1,2.60009E0,-1.7584364E1,2.6707582E1,6.503613E1,-1.054938E0,-1.6012335E1,-9.815796E0,2.0461002E1],"categories":[],"categories_nodes":[],"categories_segments":[],"categories_sizes":[],"default_left":[1,1,1,1,1,1,1,1,1,1,1,0,0,1,1,1,1,1,1,1,1,1,1,1,1,1,1,1,1,0,0,1,1,1,1,1,1,1,1,0,1,1,1,1,0,1,0,1,0,1,1,0,0,0,0,0,0,0,0,0,0,0,0,0,0,0,0,0,0,0,0,0,0,0,0,0,0,0,0,0,0,0,0,0,0,0,0],"id":7,"left_children":[1,3,5,7,9,11,13,15,17,19,21,-1,-1,23,25,27,29,31,33,35,37,39,41,43,45,47,49,51,53,-1,-1,55,57,59,61,63,65,67,69,-1,71,73,75,77,-1,79,-1,81,-1,83,85,-1,-1,-1,-1,-1,-1,-1,-1,-1,-1,-1,-1,-1,-1,-1,-1,-1,-1,-1,-1,-1,-1,-1,-1,-1,-1,-1,-1,-1,-1,-1,-1,-1,-1,-1,-1],"loss_changes":[3.1353188E4,1.0595805E4,8.044801E3,4.182789E3,9.808668E3,2.2E1,5.411086E3,3.7761538E3,3.6949375E3,3.4551074E3,7.4752324E3,0E0,0E0,3.0345918E3,6.69633E3,2.0411431E3,1.3244653E3,4.7453E3,4.1139023E3,3.502121E3,1.8944072E3,1.5581725E3,7.722701E3,3.3787031E3,6.188619E3,4.9543984E3,2.5348198E3,5.3660376E3,1.9729365E3,0E0,0E0,4.437717E3,4.4782056E3,3.8180605E3,5.2217637E3,4.7001875E3,6.4095938E3,9.607993E2,1.3165912E2,0E0,2.793036E2,2.3001875E3,5.349366E3,3.323496E3,0E0,2.224634E3,0E0,5.218785E3,0E0,2.48198E2,2.0219106E3,0E0,0E0,0E0,0E0,0E0,0E0,0E0,0E0,0E0,0E0,0E0,0E0,0E0,0E0,0E0,0E0,0E0,0E0,0E0,0E0,0E0,0E0,0E0,0E0,0E0,0E0,0E0,0E0,0E0,0E0,0E0,0E0,0E0,0E0,0E0,0E0],"parents":[2147483647,0,0,1,1,2,2,3,3,4,4,5,5,6,6,7,7,8,8,9,9,10,10,13,13,14,14,15,15,16,16,17,17,18,18,19,19,20,20,21,21,22,22,23,23,24,24,25,25,26,26,27,27,28,28,31,31,32,32,33,33,34,34,35,35,36,36,37,37,38,38,40,40,41,41,42,42,43,43,45,45,47,47,49,49,50,50],"right_children":[2,4,6,8,10,12,14,16,18,20,22,-1,-1,24,26,28,30,32,34,36,38,40,42,44,46,48,50,52,54,-1,-1,56,58,60,62,64,66,68,70,-1,72,74,76,78,-1,80,-1,82,-1,84,86,-1,-1,-1,-1,-1,-1,-1,-1,-1,-1,-1,-1,-1,-1,-1,-1,-1,-1,-1,-1,-1,-1,-1,-1,-1,-1,-1,-1,-1,-1,-1,-1,-1,-1,-1,-1],"split_conditions":[7.625E1,6.825E1,-2.7163086E0,1.425E1,2.0878906E0,2.8E1,1.5525E2,1.3485107E0,1.3919678E0,2.475E1,-8.0218506E-1,6.550462E0,1.664038E1,8.0474854E-1,2.54E2,-2.8710938E0,3.0449219E0,5.75E0,6.959839E-1,2.275E1,2.805664E0,2.5881348E0,1.175E1,4.0675E2,7.65E1,3.6125E2,-6.959839E-1,-1.8897705E0,8.25E0,1.6158715E-1,1.2932913E1,-2.194336E0,2.0878906E0,2.425E1,2.6025E2,2.15E1,3.4799194E-1,-7.369385E-1,1.6094971E0,3.5246491E0,2.3273926E0,2.5229492E0,1.892334E0,2.875E1,-4.79217E0,5.25E0,1.1985036E1,2.2425E2,-2.2359917E0,7.177429E-1,7.3950195E-1,1.0019803E1,1.2444785E0,4.3813282E-1,2.7148232E0,-6.5592414E-1,1.1628463E0,7.690931E-1,-2.330364E0,1.4456341E0,-2.966697E0,8.936232E0,2.4310646E0,2.758236E0,1.48729925E1,5.9578337E-2,2.2835457E0,4.328047E-1,1.08281975E1,1.7091988E0,-1.4650183E0,-2.0549645E0,-7.268957E0,-1.3202488E0,1.2194311E1,1.754738E-2,1.1450226E1,3.5369027E0,6.965009E0,7.8002703E-1,-5.2753096E0,8.012275E0,1.9510841E1,-3.164814E-1,-4.8037004E0,-2.9447389E0,6.138301E0],"split_indices":[24,14,16,24,7,17,24,21,12,5,19,0,0,10,2,18,1,5,22,17,1,4,2,25,2,25,9,16,5,0,0,19,13,2,25,20,16,7,0,0,0,1,3,23,0,8,0,24,0,3,12,0,0,0,0,0,0,0,0,0,0,0,0,0,0,0,0,0,0,0,0,0,0,0,0,0,0,0,0,0,0,0,0,0,0,0,0],"split_type":[0,0,0,0,0,0,0,0,0,0,0,0,0,0,0,0,0,0,0,0,0,0,0,0,0,0,0,0,0,0,0,0,0,0,0,0,0,0,0,0,0,0,0,0,0,0,0,0,0,0,0,0,0,0,0,0,0,0,0,0,0,0,0,0,0,0,0,0,0,0,0,0,0,0,0,0,0,0,0,0,0,0,0,0,0,0,0],"sum_hessian":[5.884E3,5.639E3,2.45E2,4.944E3,6.95E2,6E0,2.39E2,1.827E3,3.117E3,6.48E2,4.7E1,2E0,4E0,1.99E2,4E1,1.824E3,3E0,1.756E3,1.361E3,6.38E2,1E1,7E0,4E1,1.66E2,3.3E1,2.1E1,1.9E1,7.1E1,1.753E3,1E0,2E0,1.589E3,1.67E2,1.287E3,7.4E1,1.57E2,4.81E2,7E0,3E0,2E0,5E0,2.2E1,1.8E1,1.63E2,3E0,3E1,3E0,1.9E1,2E0,4E0,1.5E1,6E0,6.5E1,1.719E3,3.4E1,1.31E2,1.458E3,9E1,7.7E1,1.27E3,1.7E1,1.3E1,6.1E1,1.55E2,2E0,1.98E2,2.83E2,1E0,6E0,2E0,1E0,3E0,2E0,1E0,2.1E1,1.4E1,4E0,1.3E2,3.3E1,2.4E1,6E0,1.3E1,6E0,2E0,2E0,2E0,1.3E1],"tree_param":{"num_deleted":"0","num_feature":"26","num_nodes":"87","size_leaf_vector":"0"}},{"base_weights":[2.8926919E0,2.4086034E0,8.997612E0,1.8936442E0,4.142597E0,7.4675603E0,1.818092E1,1.4434495E0,3.7291083E0,3.1995497E0,8.370139E0,5.7017994E0,1.4621815E1,2.2133112E1,-7.113199E0,1.7244818E0,-2.081972E0,3.1972742E1,3.4493542E0,1.1082221E0,4.9712033E0,-1.7603067E1,9.648181E0,1.8034912E1,4.264658E0,1.8309738E1,3.1766815E0,5.061486E-1,2.7150867E1,-1.2447986E1,7.7057014E0,3.5463343E0,1.2147304E0,-3.035269E0,1.55308485E1,3.5594086E1,3.3116703E0,6.3060927E0,1.2703573E0,2.9851632E0,-4.5801997E0,3.2710835E1,4.5039964E0,-2.9921076E1,1.1433716E1,1.1557509E1,-1.7512927E0,2.317707E1,-2.9063594E0,4.442334E1,3.7992074E0,1.227123E1,2.9105267E1,-8.328157E-1,2.4838272E1,8.42406E0,-1.5456211E1,3.0995176E1,6.457615E0,-3.3070934E0,-1.5442924E1,2.3514555E-1,5.627093E0,-8.429327E0,1.3500029E0,-1.2654154E0,-1.29309635E1,3.0362394E0,3.4914974E1,3.1766558E0,9.54317E0,2.1038282E1,9.674379E-1,5.8777194E0,3.110025E-1,-5.5239916E0,3.312522E1,-3.0960784E0,5.1130302E1,4.9068832E0,-1.550042E1,-8.9168005E0,-3.5436367E1,-8.957777E0,2.1216806E1,9.790493E0,3.1048788E1,-1.4080348E1,3.6853092E0,2.557588E1,-2.939495E0,-1.3214301E1,1.524233E1,6.2063355E0,-9.509905E-1,7.4102197E0,2.4654934E1,8.220022E0,4.0603325E1,1.2512858E1,-3.4464295E0,1.3257112E1,-4.050064E0,3.409476E1,-2.32518E0,-8.187672E0,1.688232E1],"categories":[],"categories_nodes":[],"categories_segments":[],"categories_sizes":[],"default_left":[1,1,1,1,1,1,1,1,1,1,1,1,1,1,1,1,1,1,1,1,1,1,1,1,1,1,1,1,1,1,0,1,1,1,1,0,0,1,1,1,1,1,1,1,1,1,1,1,1,0,1,1,1,1,0,1,0,1,1,0,0,0,0,0,0,0,0,0,0,0,0,0,0,0,0,0,0,0,0,0,0,0,0,0,0,0,0,0,0,0,0,0,0,0,0,0,0,0,0,0,0,0,0,0,0,0,0],"id":8,"left_children":[1,3,5,7,9,11,13,15,17,19,21,23,25,27,29,31,33,35,37,39,41,43,45,47,49,51,53,55,57,59,-1,61,63,65,67,-1,-1,69,71,73,75,77,79,81,83,85,87,89,91,-1,93,95,97,99,-1,101,-1,103,105,-1,-1,-1,-1,-1,-1,-1,-1,-1,-1,-1,-1,-1,-1,-1,-1,-1,-1,-1,-1,-1,-1,-1,-1,-1,-1,-1,-1,-1,-1,-1,-1,-1,-1,-1,-1,-1,-1,-1,-1,-1,-1,-1,-1,-1,-1,-1,-1],"loss_changes":[1.7370398E4,4.8622266E3,5.9342344E3,3.4709297E3,4.948713E3,4.615994E3,6.2554375E3,3.3523486E3,6.4319697E3,3.7811113E3,7.7050703E3,5.240417E3,3.0230752E3,5.737756E3,8.074215E2,2.9034268E3,4.2447026E3,7.1245654E2,5.1025703E3,5.031784E3,7.019634E3,4.2765376E3,4.7433164E3,3.405545E3,4.8780327E3,3.2282305E3,1.6708755E3,1.5204781E3,3.2205469E3,1.405636E2,0E0,4.711289E3,3.204982E3,4.1519526E3,3.0425518E3,0E0,0E0,3.565915E3,2.7760837E3,2.7364185E3,4.3465537E3,6.094202E3,4.468497E3,6.107783E2,9.880226E2,6.102117E3,2.1967917E3,1.6413975E3,1.5109463E3,0E0,3.070304E3,2.044602E3,4.2288955E3,6.360921E2,0E0,5.3599695E2,0E0,3.7973281E3,1.3596094E3,0E0,0E0,0E0,0E0,0E0,0E0,0E0,0E0,0E0,0E0,0E0,0E0,0E0,0E0,0E0,0E0,0E0,0E0,0E0,0E0,0E0,0E0,0E0,0E0,0E0,0E0,0E0,0E0,0E0,0E0,0E0,0E0,0E0,0E0,0E0,0E0,0E0,0E0,0E0,0E0,0E0,0E0,0E0,0E0,0E0,0E0,0E0,0E0],"parents":[2147483647,0,0,1,1,2,2,3,3,4,4,5,5,6,6,7,7,8,8,9,9,10,10,11,11,12,12,13,13,14,14,15,15,16,16,17,17,18,18,19,19,20,20,21,21,22,22,23,23,24,24,25,25,26,26,27,27,28,28,29,29,31,31,32,32,33,33,34,34,37,37,38,38,39,39,40,40,41,41,42,42,43,43,44,44,45,45,46,46,47,47,48,48,50,50,51,51,52,52,53,53,55,55,57,57,58,58],"right_children":[2,4,6,8,10,12,14,16,18,20,22,24,26,28,30,32,34,36,38,40,42,44,46,48,50,52,54,56,58,60,-1,62,64,66,68,-1,-1,70,72,74,76,78,80,82,84,86,88,90,92,-1,94,96,98,100,-1,102,-1,104,106,-1,-1,-1,-1,-1,-1,-1,-1,-1,-1,-1,-1,-1,-1,-1,-1,-1,-1,-1,-1,-1,-1,-1,-1,-1,-1,-1,-1,-1,-1,-1,-1,-1,-1,-1,-1,-1,-1,-1,-1,-1,-1,-1,-1,-1,-1,-1,-1],"split_conditions":[1.0225E2,3.075E1,1.8487549E0,3.0025E2,3.825E1,1.1525E2,2.8928223E0,2.8775E2,-2.738037E0,1.3049316E0,-2.8901367E0,-1.7399902E0,1.0275E2,6.525421E-2,2.3273926E0,-2.610016E-1,9.135132E-1,3.775E1,1.6313477E0,4.75E0,-1.8897705E0,3.0575E2,9.475E1,1.6875E2,-1.6965332E0,1.71E2,1.8704834E0,9.05E1,2.0009766E0,2.6101074E0,2.3117106E0,-1.0874939E-1,-2.6291504E0,4.1323853E-1,2.425E1,1.0678226E1,9.935011E-1,-6.525421E-2,-1.0618591E-1,1.7399597E-1,1.2832031E0,1.0657959E0,3.275E1,6.089783E-1,1.6964111E0,9.175E1,5.9E1,8E0,1.5877686E0,1.3327003E1,2.8975E2,2.3273926E0,-5.654907E-1,-1.56604E0,7.451482E0,6.95E1,-4.6368637E0,2.2402344E0,2.0444336E0,-9.921281E-1,-4.6328773E0,7.054367E-2,1.6881279E0,-2.528798E0,4.050009E-1,-3.7962463E-1,-3.8792892E0,9.1087186E-1,1.0474493E1,9.529968E-1,2.862951E0,6.311485E0,2.9023138E-1,1.7633159E0,9.330075E-2,-1.6571976E0,9.937567E0,-9.2882353E-1,1.5339091E1,1.472065E0,-4.650126E0,-2.6750402E0,-1.0630911E1,-2.687333E0,6.365042E0,2.937148E0,9.314637E0,-4.2241044E0,1.1055928E0,7.6727643E0,-8.818486E-1,-3.9642904E0,4.572699E0,1.8619007E0,-2.8529716E-1,2.223066E0,7.3964806E0,2.4660068E0,1.2180998E1,3.7538576E0,-1.0339289E0,3.9771335E0,-1.2150192E0,1.0228429E1,-6.9755405E-1,-2.4563017E0,5.0646963E0],"split_indices":[14,24,7,25,17,24,4,25,7,12,22,18,17,10,0,18,9,14,0,5,13,25,14,14,3,24,3,24,10,13,0,6,19,9,17,0,0,9,1,12,6,0,2,0,0,14,17,5,4,0,25,12,21,18,0,2,0,3,0,0,0,0,0,0,0,0,0,0,0,0,0,0,0,0,0,0,0,0,0,0,0,0,0,0,0,0,0,0,0,0,0,0,0,0,0,0,0,0,0,0,0,0,0,0,0,0,0],"split_type":[0,0,0,0,0,0,0,0,0,0,0,0,0,0,0,0,0,0,0,0,0,0,0,0,0,0,0,0,0,0,0,0,0,0,0,0,0,0,0,0,0,0,0,0,0,0,0,0,0,0,0,0,0,0,0,0,0,0,0,0,0,0,0,0,0,0,0,0,0,0,0,0,0,0,0,0,0,0,0,0,0,0,0,0,0,0,0,0,0,0,0,0,0,0,0,0,0,0,0,0,0,0,0,0,0,0,0],"sum_hessian":[5.884E3,5.453E3,4.31E2,4.206E3,1.247E3,3.71E2,6E1,3.379E3,8.27E2,1.021E3,2.26E2,2.99E2,7.2E1,5.2E1,8E0,3.13E3,2.49E2,7E0,8.2E2,4.69E2,5.52E2,1E1,2.16E2,3E1,2.69E2,5.4E1,1.8E1,1E1,4.2E1,6E0,2E0,6.83E2,2.447E3,2.37E2,1.2E1,6E0,1E0,3.54E2,4.66E2,3.53E2,1.16E2,8E0,5.44E2,7E0,3E0,1.85E2,3.1E1,2.4E1,6E0,2E0,2.67E2,3.6E1,1.8E1,1.6E1,2E0,7E0,3E0,3.5E1,7E0,2E0,4E0,2.64E2,4.19E2,3.3E1,2.414E3,2.02E2,3.5E1,8E0,4E0,1.81E2,1.73E2,6E0,4.6E2,1.69E2,1.84E2,1.14E2,2E0,3E0,5E0,5.34E2,1E1,2E0,5E0,1E0,2E0,1.71E2,1.4E1,9E0,2.2E1,2.2E1,2E0,4E0,2E0,1.77E2,9E1,2.7E1,9E0,7E0,1.1E1,2E0,1.4E1,5E0,2E0,3.2E1,3E0,3E0,4E0],"tree_param":{"num_deleted":"0","num_feature":"26","num_nodes":"107","size_leaf_vector":"0"}},{"base_weights":[2.0441563E0,1.6051294E0,5.559292E0,1.5364621E0,1.147533E1,5.865258E0,-1.6985994E1,1.5788943E0,-1.5508911E1,3.4983265E-1,1.8539291E1,3.6234205E0,9.21397E0,-3.3899102E0,-2.718488E1,3.8215208E0,1.2994999E0,6.1872406E0,-2.5839115E1,2.117217E1,-1.2178554E1,3.1244751E1,2.9933999E0,2.0962846E0,1.117986E1,1.8222253E0,1.1592728E1,-8.39704E0,8.319305E0,-6.241577E0,-3.0860312E1,3.206789E1,3.4666862E0,1.168476E0,6.9689016E0,-2.549389E0,2.056688E1,-1.5355244E0,-2.8685123E1,2.8707067E1,1.0227957E1,1.0199536E1,-1.904802E1,2.2474098E0,3.6819477E1,1.1932687E1,-6.4447875E0,5.1145387E0,-3.584832E0,2.36069E1,6.9796104E0,4.304551E0,-1.6092125E1,1.3430215E1,-3.4670682E0,3.3533916E0,3.629474E1,1.2899193E0,6.2903795E0,1.2521178E0,-8.707781E0,4.9961376E0,2.5013268E1,-9.629455E0,-2.2773266E1,-3.829441E0,7.200556E0,4.363239E1,6.3785615E0,-5.6972528E0,2.217197E1,-8.452655E0,1.7972755E0,1.8429655E1,4.0799866E0,-9.456836E0,2.3500636E0,1.4804041E1,5.6817932E1,3.8288546E0,2.5787275E1,2.9676428E-1,1.5506571E1,-2.294902E1,2.9857051E0,1.7959665E1,6.9174175E0,1.5635812E1,-1.1607886E1],"categories":[],"categories_nodes":[],"categories_segments":[],"categories_sizes":[],"default_left":[1,1,1,1,1,1,1,1,1,1,1,1,1,1,1,1,1,1,1,1,1,1,1,1,1,1,1,0,0,0,0,1,1,1,1,0,0,0,0,0,0,0,1,1,1,1,1,1,1,1,1,1,1,1,1,0,0,0,0,0,0,0,0,0,0,0,0,0,0,0,0,0,0,0,0,0,0,0,0,0,0,0,0,0,0,0,0,0,0],"id":9,"left_children":[1,3,5,7,9,11,13,15,17,19,21,23,25,27,29,31,33,35,37,39,41,43,45,47,49,51,53,-1,-1,-1,-1,55,57,59,61,-1,-1,-1,-1,-1,-1,-1,63,65,67,69,71,73,75,77,79,81,83,85,87,-1,-1,-1,-1,-1,-1,-1,-1,-1,-1,-1,-1,-1,-1,-1,-1,-1,-1,-1,-1,-1,-1,-1,-1,-1,-1,-1,-1,-1,-1,-1,-1,-1,-1],"loss_changes":[9.073037E3,3.529084E3,4.604086E3,3.7840586E3,2.8227573E3,4.8088027E3,1.1558301E3,3.2444648E3,3.073507E3,4.170901E3,4.251861E3,4.4539717E3,4.515332E3,3.6300537E2,1.9226123E2,5.641912E3,3.418516E3,6.805809E2,5.784673E2,2.011665E2,1.7315358E3,1.8570791E3,1.0049809E3,5.57398E3,3.2280156E3,2.9153022E3,5.4426387E3,0E0,0E0,0E0,0E0,7.278926E2,3.4831113E3,3.7364644E3,3.5771465E3,0E0,0E0,0E0,0E0,0E0,0E0,0E0,6.1397705E1,1.1787269E2,1.7956006E3,1.2094271E3,1.14485565E2,2.8451455E3,3.960244E3,3.836496E3,2.8641826E3,2.5544307E3,1.1150364E3,5.00866E3,3.6027864E3,0E0,0E0,0E0,0E0,0E0,0E0,0E0,0E0,0E0,0E0,0E0,0E0,0E0,0E0,0E0,0E0,0E0,0E0,0E0,0E0,0E0,0E0,0E0,0E0,0E0,0E0,0E0,0E0,0E0,0E0,0E0,0E0,0E0,0E0],"parents":[2147483647,0,0,1,1,2,2,3,3,4,4,5,5,6,6,7,7,8,8,9,9,10,10,11,11,12,12,13,13,14,14,15,15,16,16,17,17,18,18,19,19,20,20,21,21,22,22,23,23,24,24,25,25,26,26,31,31,32,32,33,33,34,34,42,42,43,43,44,44,45,45,46,46,47,47,48,48,49,49,50,50,51,51,52,52,53,53,54,54],"right_children":[2,4,6,8,10,12,14,16,18,20,22,24,26,28,30,32,34,36,38,40,42,44,46,48,50,52,54,-1,-1,-1,-1,56,58,60,62,-1,-1,-1,-1,-1,-1,-1,64,66,68,70,72,74,76,78,80,82,84,86,88,-1,-1,-1,-1,-1,-1,-1,-1,-1,-1,-1,-1,-1,-1,-1,-1,-1,-1,-1,-1,-1,-1,-1,-1,-1,-1,-1,-1,-1,-1,-1,-1,-1,-1],"split_conditions":[8.375E1,3.175E1,4.32E2,8.275E1,6.15E1,8.482666E-1,7.6123047E-1,-1.3049316E0,6.742554E-1,4.784851E-1,7.95E1,1.0175E2,-3.1341553E-2,1.7401123E0,2.1314697E0,-2.0201416E0,6.959839E-1,2.7E1,3.25E0,1.3266602E0,3.325E1,7.3950195E-1,4.3499756E-1,1.152832E0,-5.220337E-1,3.4799194E-1,3.0449219E0,-2.519112E0,2.4957917E0,-1.8724732E0,-9.258094E0,1.0657959E0,-2.1750488E0,4.3499756E-1,9.569702E-1,-7.648167E-1,6.170064E0,-4.6065733E-1,-8.605537E0,8.612121E0,3.0683873E0,3.059861E0,4.3499756E-1,1.3920288E0,1.6748047E0,2.0878906E0,2.1750488E0,1.61E2,-2.1751404E-2,1.8975E2,2.8928223E0,8.125E1,2.1750488E0,2.7624512E0,-6.281738E-1,1.0060176E0,1.0888422E1,3.869758E-1,1.8871139E0,3.7563536E-1,-2.6123343E0,1.4988413E0,7.5039806E0,-2.8888364E0,-6.83198E0,-1.1488323E0,2.1601667E0,1.3089717E1,1.9135685E0,-1.709176E0,6.6515913E0,-2.5357966E0,5.3918266E-1,5.528897E0,1.223996E0,-2.837051E0,7.050191E-1,4.4412127E0,1.704538E1,1.1486564E0,7.7361827E0,8.902929E-2,4.6519713E0,-6.8847065E0,8.957116E-1,5.3879E0,2.0752254E0,4.690744E0,-3.482366E0],"split_indices":[14,23,25,14,14,3,3,21,3,19,14,24,16,0,1,16,22,2,2,3,23,16,3,0,15,18,13,0,0,0,0,0,21,22,21,0,0,0,0,0,0,0,9,0,10,13,0,25,18,2,1,24,0,1,22,0,0,0,0,0,0,0,0,0,0,0,0,0,0,0,0,0,0,0,0,0,0,0,0,0,0,0,0,0,0,0,0,0,0],"split_type":[0,0,0,0,0,0,0,0,0,0,0,0,0,0,0,0,0,0,0,0,0,0,0,0,0,0,0,0,0,0,0,0,0,0,0,0,0,0,0,0,0,0,0,0,0,0,0,0,0,0,0,0,0,0,0,0,0,0,0,0,0,0,0,0,0,0,0,0,0,0,0,0,0,0,0,0,0,0,0,0,0,0,0,0,0,0,0,0,0],"sum_hessian":[5.884E3,5.232E3,6.52E2,5.197E3,3.5E1,6.44E2,8E0,5.185E3,1.2E1,1.4E1,2.1E1,3.87E2,2.57E2,4E0,4E0,5.73E2,4.612E3,4E0,8E0,5E0,9E0,1.1E1,1E1,3.23E2,6.4E1,6.3E1,1.94E2,3E0,1E0,1E0,3E0,6E0,5.67E2,4.509E3,1.03E2,3E0,1E0,1E0,7E0,2E0,3E0,2E0,7E0,2E0,9E0,5E0,5E0,2.11E2,1.12E2,1.5E1,4.9E1,5.6E1,7E0,1.73E2,2.1E1,1E0,5E0,3.21E2,2.46E2,4.472E3,3.7E1,9.4E1,9E0,3E0,4E0,1E0,1E0,7E0,2E0,2E0,3E0,4E0,1E0,1.4E1,1.97E2,5.6E1,5.6E1,1.3E1,2E0,4.3E1,6E0,4.2E1,1.4E1,5E0,2E0,1.01E2,7.2E1,6E0,1.5E1],"tree_param":{"num_deleted":"0","num_feature":"26","num_nodes":"89","size_leaf_vector":"0"}}]},"name":"gbtree"},"learner_model_param":{"base_score":"5E-1","num_class":"0","num_feature":"26","num_target":"1"},"objective":{"name":"reg:squarederror","reg_loss_param":{"scale_pos_weight":"1"}}},"version":[1,6,0]}