{"learner":{"attributes":{"best_iteration":"19","best_ntree_limit":"20","scikit_learn":"{\"n_estimators\": 20, \"objective\": \"reg:linear\", \"max_depth\": 4, \"max_leaves\": null, \"max_bin\": null, \"grow_policy\": null, \"learning_rate\": null, \"verbosity\": null, \"booster\": null, \"tree_method\": null, \"gamma\": null, \"min_child_weight\": null, \"max_delta_step\": null, \"subsample\": null, \"sampling_method\": null, \"colsample_bytree\": null, \"colsample_bylevel\": null, \"colsample_bynode\": null, \"reg_alpha\": null, \"reg_lambda\": null, \"scale_pos_weight\": null, \"base_score\": null, \"missing\": NaN, \"num_parallel_tree\": null, \"random_state\": null, \"n_jobs\": null, \"monotone_constraints\": null, \"interaction_constraints\": null, \"importance_type\": null, \"gpu_id\": null, \"validate_parameters\": null, \"predictor\": null, \"enable_categorical\": false, \"max_cat_to_onehot\": null, \"eval_metric\": null, \"early_stopping_rounds\": null, \"callbacks\": null, \"kwargs\": {\"seed\": 1}, \"_estimator_type\": \"regressor\"}"},"feature_names":["Jet_0_eta","Jet_0_phi","Jet_0_pt","Jet_1_eta","Jet_1_phi","Jet_1_pt","Jet_2_eta","Jet_2_phi","Jet_2_pt","Jet_3_eta","Jet_3_phi","Jet_3_pt","methf_0_pt","ntt_0_pt"],"feature_types":["float","float","float","float","float","float","float","float","float","float","float","float","float","float"],"gradient_booster":{"model":{"gbtree_model_param":{"num_parallel_tree":"1","num_trees":"20","size_leaf_vector":"0"},"tree_info":[0,0,0,0,0,0,0,0,0,0,0,0,0,0,0,0,0,0,0,0],"trees":[{"base_weights":[4.7494358E1,4.0977924E1,1.2231178E2,3.564219E1,6.0691975E1,1.0530245E2,1.983153E2,3.0409527E1,4.012678E1,5.164526E1,6.735764E1,4.3613903E1,1.0854539E2,1.5231497E2,2.1012595E2,2.3373665E1,3.320429E1,3.7767002E1,4.6936295E1,4.8477596E1,5.8367657E1,6.0453423E1,7.311914E1,4.5366898E1,4.277018E0,9.8825096E1,1.261363E2,2.1387613E1,1.5779196E2,4.6509212E1,2.1195575E2],"categories":[],"categories_nodes":[],"categories_segments":[],"categories_sizes":[],"default_left":[1,1,1,1,1,1,1,1,1,1,1,1,1,1,1,0,0,0,0,0,0,0,0,0,0,0,0,0,0,0,0],"id":0,"left_children":[1,3,5,7,9,11,13,15,17,19,21,23,25,27,29,-1,-1,-1,-1,-1,-1,-1,-1,-1,-1,-1,-1,-1,-1,-1,-1],"loss_changes":[2.864178E6,5.67435E5,5.880115E5,9.88405E4,6.59895E4,7.26855E4,1.417475E4,3.80005E4,3.50735E4,7.6685E3,2.18335E4,1.2540664E3,5.0288E4,1.16840625E4,9.60225E3,0E0,0E0,0E0,0E0,0E0,0E0,0E0,0E0,0E0,0E0,0E0,0E0,0E0,0E0,0E0,0E0],"parents":[2147483647,0,0,1,1,2,2,3,3,4,4,5,5,6,6,7,7,8,8,9,9,10,10,11,11,12,12,13,13,14,14],"right_children":[2,4,6,8,10,12,14,16,18,20,22,24,26,28,30,-1,-1,-1,-1,-1,-1,-1,-1,-1,-1,-1,-1,-1,-1,-1,-1],"split_conditions":[5.625E1,4.475E1,1.1825E2,2.375E1,2.825E1,4.375E1,1.2825E2,2.0125E2,2.775E1,6.775E1,6.925E1,2.8273926E0,8.125E1,-1.0632324E0,-3.0668945E0,7.0120997E0,9.961287E0,1.1330101E1,1.4080889E1,1.454328E1,1.7510298E1,1.8136028E1,2.1935743E1,1.361007E1,1.2831055E0,2.964753E1,3.7840893E1,6.416284E0,4.733759E1,1.39527645E1,6.3586727E1],"split_indices":[12,2,12,2,12,2,12,13,12,2,2,4,12,4,6,0,0,0,0,0,0,0,0,0,0,0,0,0,0,0,0],"split_type":[0,0,0,0,0,0,0,0,0,0,0,0,0,0,0,0,0,0,0,0,0,0,0,0,0,0,0,0,0,0,0],"sum_hessian":[5.884E3,5.414E3,4.7E2,4.263E3,1.151E3,3.86E2,8.4E1,1.971E3,2.292E3,4.92E2,6.59E2,2E1,3.66E2,2E1,6.4E1,5.63E2,1.408E3,1.707E3,5.85E2,3.4E2,1.52E2,3.05E2,3.54E2,1.9E1,1E0,2.4E2,1.26E2,1E0,1.9E1,1E0,6.3E1],"tree_param":{"num_deleted":"0","num_feature":"14","num_nodes":"31","size_leaf_vector":"0"}},{"base_weights":[3.330182E1,2.8705692E1,8.607191E1,2.4245148E1,4.0582054E1,7.326743E1,1.3802441E2,1.9856203E1,2.8067421E1,3.5817757E1,4.8121883E1,3.1238932E1,7.551557E1,1.16854195E2,1.5943108E2,1.7172436E1,2.2601065E1,2.672351E1,3.488538E1,3.252862E1,4.076621E1,4.484072E1,5.549652E1,2.0186108E1,3.945185E1,6.6128784E1,8.3658485E1,1.1854819E2,1.692426E1,1.7961789E2,9.231366E1],"categories":[],"categories_nodes":[],"categories_segments":[],"categories_sizes":[],"default_left":[1,1,1,1,1,1,1,1,1,1,1,1,1,1,1,0,0,0,0,0,0,0,0,0,0,0,0,0,0,0,0],"id":1,"left_children":[1,3,5,7,9,11,13,15,17,19,21,23,25,27,29,-1,-1,-1,-1,-1,-1,-1,-1,-1,-1,-1,-1,-1,-1,-1,-1],"loss_changes":[1.424865E6,2.85876E5,3.0320825E5,6.552225E4,5.133325E4,3.3545625E4,2.3062625E4,1.31443125E4,1.8336875E4,1.3468875E4,1.127975E4,1.109916E3,2.1984625E4,6.45775E3,4.1679E4,0E0,0E0,0E0,0E0,0E0,0E0,0E0,0E0,0E0,0E0,0E0,0E0,0E0,0E0,0E0,0E0],"parents":[2147483647,0,0,1,1,2,2,3,3,4,4,5,5,6,6,7,7,8,8,9,9,10,10,11,11,12,12,13,13,14,14],"right_children":[2,4,6,8,10,12,14,16,18,20,22,24,26,28,30,-1,-1,-1,-1,-1,-1,-1,-1,-1,-1,-1,-1,-1,-1,-1,-1],"split_conditions":[5.625E1,3.925E1,1.1525E2,2.4275E2,3.425E1,4.375E1,1.5525E2,2.5E-1,3.1103516E0,5.825E1,4.725E1,1.4790039E0,7.175E1,3.4275E2,1.4025E2,5.151731E0,6.7803197E0,8.017054E0,1.0465614E1,9.758587E0,1.2229863E1,1.3452217E1,1.6648956E1,6.0558324E0,1.1835556E1,1.9838636E1,2.5097548E1,3.5564457E1,5.077278E0,5.388537E1,2.76941E1],"split_indices":[12,2,12,13,12,2,12,5,0,2,12,0,12,2,5,0,0,0,0,0,0,0,0,0,0,0,0,0,0,0,0],"split_type":[0,0,0,0,0,0,0,0,0,0,0,0,0,0,0,0,0,0,0,0,0,0,0,0,0,0,0,0,0,0,0],"sum_hessian":[5.884E3,5.414E3,4.7E2,3.938E3,1.476E3,3.79E2,9.1E1,1.836E3,2.102E3,9.08E2,5.68E2,2E1,3.59E2,4.9E1,4.2E1,9.32E2,9.04E2,1.76E3,3.42E2,5.5E2,3.58E2,3.98E2,1.7E2,1E1,1E1,1.71E2,1.88E2,4.8E1,1E0,3.1E1,1.1E1],"tree_param":{"num_deleted":"0","num_feature":"14","num_nodes":"31","size_leaf_vector":"0"}},{"base_weights":[2.3356735E1,2.0149017E1,6.114309E1,1.57444725E1,2.6600523E1,5.221561E1,9.9914734E1,1.4320089E1,2.1906456E1,2.3927692E1,3.4732677E1,4.784991E1,6.881902E1,4.7971625E0,1.02148926E2,1.0420035E1,1.5516408E1,1.9851969E1,2.8158485E1,2.2775827E1,3.0482626E1,3.2882748E1,4.6736744E1,3.9935516E1,5.4483948E1,7.0644264E1,8.566831E-1,4.7926556E1,-4.0730812E1,8.400693E1,1.1868447E2],"categories":[],"categories_nodes":[],"categories_segments":[],"categories_sizes":[],"default_left":[1,1,1,1,1,1,1,1,1,1,1,1,1,1,1,0,0,0,0,0,0,0,0,0,0,0,0,0,0,0,0],"id":2,"left_children":[1,3,5,7,9,11,13,15,17,19,21,23,25,27,29,-1,-1,-1,-1,-1,-1,-1,-1,-1,-1,-1,-1,-1,-1,-1,-1],"loss_changes":[7.1207675E5,1.5376625E5,1.5400412E5,2.8009812E4,4.6987875E4,2.3961562E4,1.7573438E4,1.2081125E4,7.1991875E3,1.18318125E4,1.04991875E4,1.36279375E4,9.367094E3,7.8428696E3,1.4928625E4,0E0,0E0,0E0,0E0,0E0,0E0,0E0,0E0,0E0,0E0,0E0,0E0,0E0,0E0,0E0,0E0],"parents":[2147483647,0,0,1,1,2,2,3,3,4,4,5,5,6,6,7,7,8,8,9,9,10,10,11,11,12,12,13,13,14,14],"right_children":[2,4,6,8,10,12,14,16,18,20,22,24,26,28,30,-1,-1,-1,-1,-1,-1,-1,-1,-1,-1,-1,-1,-1,-1,-1,-1],"split_conditions":[5.725E1,3.225E1,1.1825E2,2.9925E2,6.775E1,9.075E1,1.54E2,1.9075E2,3.4825E2,3.825E1,4.375E1,1.4790039E0,2.8710938E0,-1.3049316E-1,1.5675E2,3.1260107E0,4.6549225E0,5.9555907E0,8.447546E0,6.8327484E0,9.144788E0,9.864824E0,1.4021024E1,1.1980656E1,1.6345184E1,2.119328E1,2.5700495E-1,1.4377967E1,-1.2219244E1,2.520208E1,3.5605343E1],"split_indices":[12,2,12,13,2,12,13,13,13,12,8,0,4,0,12,0,0,0,0,0,0,0,0,0,0,0,0,0,0,0,0],"split_type":[0,0,0,0,0,0,0,0,0,0,0,0,0,0,0,0,0,0,0,0,0,0,0,0,0,0,0,0,0,0,0],"sum_hessian":[5.884E3,5.425E3,4.59E2,3.226E3,2.199E3,3.75E2,8.4E1,2.623E3,6.03E2,1.658E3,5.41E2,3E2,7.5E1,2E0,8.2E1,6.18E2,2.005E3,4.57E2,1.46E2,1.414E3,2.44E2,4.72E2,6.9E1,1.4E2,1.6E2,7.3E1,2E0,1E0,1E0,4.2E1,4E1],"tree_param":{"num_deleted":"0","num_feature":"14","num_nodes":"31","size_leaf_vector":"0"}},{"base_weights":[1.6379416E1,1.4523049E1,4.949161E1,1.2302817E1,2.3491297E1,4.2382835E1,7.585292E1,1.0556953E1,1.562422E1,2.0911556E1,3.0471357E1,1.4159802E1,4.401088E1,8.9503105E1,4.510468E1,9.832739E0,1.7751427E1,1.3697328E1,1.7667534E1,1.5339795E1,2.3067951E1,6.1089993E1,2.9187174E1,1.916182E1,-2.7934217E1,3.8411743E1,5.2387417E1,7.443662E1,1.7251808E2,1.0447586E1,7.881199E1],"categories":[],"categories_nodes":[],"categories_segments":[],"categories_sizes":[],"default_left":[1,1,1,1,1,1,1,1,1,1,1,1,1,1,1,0,0,0,0,0,0,0,0,0,0,0,0,0,0,0,0],"id":3,"left_children":[1,3,5,7,9,11,13,15,17,19,21,23,25,27,29,-1,-1,-1,-1,-1,-1,-1,-1,-1,-1,-1,-1,-1,-1,-1,-1],"loss_changes":[3.6102238E5,1.1069825E5,5.5252875E4,2.5755312E4,1.9260188E4,1.0772E4,2.324475E4,1.5107375E4,5.8134688E3,9.37825E3,9.855656E3,3.6935957E3,8.962625E3,4.2191094E4,2.487695E4,0E0,0E0,0E0,0E0,0E0,0E0,0E0,0E0,0E0,0E0,0E0,0E0,0E0,0E0,0E0,0E0],"parents":[2147483647,0,0,1,1,2,2,3,3,4,4,5,5,6,6,7,7,8,8,9,9,10,10,11,11,12,12,13,13,14,14],"right_children":[2,4,6,8,10,12,14,16,18,20,22,24,26,28,30,-1,-1,-1,-1,-1,-1,-1,-1,-1,-1,-1,-1,-1,-1,-1,-1],"split_conditions":[6.875E1,5.125E1,1.2825E2,1.275E1,4.725E1,6.025E1,7.7725E2,3.175E1,3.225E1,2.125E1,5.475E1,3.5E1,1.2180176E0,2.2425E2,-2.8018188E-1,2.9498217E0,5.325428E0,4.1091986E0,5.3002605E0,4.6019387E0,6.920386E0,1.8326998E1,8.756152E0,5.748546E0,-8.380265E0,1.1523523E1,1.5716226E1,2.2330988E1,5.175543E1,3.134276E0,2.3643597E1],"split_indices":[12,2,12,8,12,2,2,12,2,12,2,8,4,12,10,0,0,0,0,0,0,0,0,0,0,0,0,0,0,0,0],"split_type":[0,0,0,0,0,0,0,0,0,0,0,0,0,0,0,0,0,0,0,0,0,0,0,0,0,0,0,0,0,0,0],"sum_hessian":[5.884E3,5.573E3,3.11E2,4.469E3,1.104E3,2.47E2,6.4E1,2.932E3,1.537E3,8.09E2,2.95E2,1.4E1,2.33E2,4.3E1,2.1E1,2.666E3,2.66E2,7.95E2,7.42E2,2.28E2,5.81E2,1E1,2.85E2,1.3E1,1E0,1.43E2,9E1,3.8E1,5E0,1.1E1,1E1],"tree_param":{"num_deleted":"0","num_feature":"14","num_nodes":"31","size_leaf_vector":"0"}},{"base_weights":[1.1496476E1,9.728988E0,2.9080832E1,8.014642E0,1.3543925E1,2.26186E1,4.41661E1,7.3047895E0,1.4882119E1,1.1359621E1,1.6196125E1,2.7984491E1,1.3803174E1,4.1409733E1,8.137062E1,6.968136E0,1.984728E1,1.5491902E1,-5.041457E0,1.733866E1,1.0159891E1,1.5283472E1,2.7841133E1,1.6403116E1,3.1883799E1,1.5988119E1,-2.5612522E1,4.3497765E1,-7.75805E0,9.259176E1,2.4324053E1],"categories":[],"categories_nodes":[],"categories_segments":[],"categories_sizes":[],"default_left":[1,1,1,1,1,1,1,1,1,1,1,1,1,1,1,0,0,0,0,0,0,0,0,0,0,0,0,0,0,0,0],"id":4,"left_children":[1,3,5,7,9,11,13,15,17,19,21,23,25,27,29,-1,-1,-1,-1,-1,-1,-1,-1,-1,-1,-1,-1,-1,-1,-1,-1],"loss_changes":[1.8262375E5,3.4874594E4,5.1350188E4,1.789425E4,9.415375E3,1.749411E4,1.3038344E4,1.4002781E4,4.2695234E3,6.365828E3,7.502875E3,1.0044297E4,1.2897059E4,1.5839719E4,4.1490625E3,0E0,0E0,0E0,0E0,0E0,0E0,0E0,0E0,0E0,0E0,0E0,0E0,0E0,0E0,0E0,0E0],"parents":[2147483647,0,0,1,1,2,2,3,3,4,4,5,5,6,6,7,7,8,8,9,9,10,10,11,11,12,12,13,13,14,14],"right_children":[2,4,6,8,10,12,14,16,18,20,22,24,26,28,30,-1,-1,-1,-1,-1,-1,-1,-1,-1,-1,-1,-1,-1,-1,-1,-1],"split_conditions":[5.275E1,3.625E1,9.075E1,3.3061523E0,1.075E1,2.8975E2,8.2E1,3.6975E2,2.7841797E0,-1.7399597E-1,4.525E1,6.090088E-1,2.285E2,4.375E1,1.3919678E0,2.0904408E0,5.9541845E0,4.647571E0,-1.5124372E0,5.201598E0,3.0479674E0,4.585042E0,8.352341E0,4.920935E0,9.56514E0,4.796436E0,-7.683757E0,1.304933E1,-2.327415E0,2.7777529E1,7.297216E0],"split_indices":[12,2,12,0,11,13,8,13,4,0,8,0,2,11,6,0,0,0,0,0,0,0,0,0,0,0,0,0,0,0,0],"split_type":[0,0,0,0,0,0,0,0,0,0,0,0,0,0,0,0,0,0,0,0,0,0,0,0,0,0,0,0,0,0,0],"sum_hessian":[5.884E3,5.348E3,5.36E2,3.692E3,1.656E3,3.77E2,1.59E2,3.348E3,3.44E2,9.11E2,7.45E2,2.33E2,1.44E2,1.5E2,9E0,3.262E3,8.6E1,3.34E2,1E1,1.5E2,7.61E2,6.93E2,5.2E1,6E1,1.73E2,1.37E2,7E0,1.44E2,6E0,7E0,2E0],"tree_param":{"num_deleted":"0","num_feature":"14","num_nodes":"31","size_leaf_vector":"0"}},{"base_weights":[8.062786E0,6.2817903E0,1.7460958E1,3.4654434E0,7.5009584E0,1.5198465E1,3.7353798E1,3.1489131E0,2.5563047E1,1.1450331E1,6.8640966E0,7.6901145E0,1.6878849E1,2.906426E1,5.276557E1,1.5841569E1,2.711482E0,3.100262E1,-5.305787E0,1.324251E1,7.028909E0,6.6944165E0,2.448992E1,-5.666926E0,1.1459019E1,1.6608356E1,5.898109E1,6.571844E1,2.1871424E1,3.268459E1,7.0803764E1],"categories":[],"categories_nodes":[],"categories_segments":[],"categories_sizes":[],"default_left":[1,1,1,1,1,1,1,1,1,1,1,1,1,1,1,0,0,0,0,0,0,0,0,0,0,0,0,0,0,0,0],"id":5,"left_children":[1,3,5,7,9,11,13,15,17,19,21,23,25,27,29,-1,-1,-1,-1,-1,-1,-1,-1,-1,-1,-1,-1,-1,-1,-1,-1],"loss_changes":[9.839406E4,1.6966906E4,4.160422E4,1.0390359E4,8.606406E3,1.050625E4,1.0603281E4,8.15759E3,3.6906719E3,3.6945781E3,8.736547E3,7.9181963E3,6.8556094E3,1.5436078E4,9.276992E3,0E0,0E0,0E0,0E0,0E0,0E0,0E0,0E0,0E0,0E0,0E0,0E0,0E0,0E0,0E0,0E0],"parents":[2147483647,0,0,1,1,2,2,3,3,4,4,5,5,6,6,7,7,8,8,9,9,10,10,11,11,12,12,13,13,14,14],"right_children":[2,4,6,8,10,12,14,16,18,20,22,24,26,28,30,-1,-1,-1,-1,-1,-1,-1,-1,-1,-1,-1,-1,-1,-1,-1,-1],"split_conditions":[6.825E1,2.2125E2,1.1475E2,4.625E1,-1.2180176E0,2.875E1,2.6970215E0,-2.3273926E0,1.1309814E0,1.4790039E0,4.523926E0,1.2180176E0,3.6540527E0,1.05E1,2.99E2,4.752471E0,8.134447E-1,9.300787E0,-1.5917362E0,3.972753E0,2.1086729E0,2.008325E0,7.3469763E0,-1.7000779E0,3.4377058E0,4.982507E0,1.7694328E1,1.9715532E1,6.5614276E0,9.805377E0,2.124113E1],"split_indices":[2,13,12,12,9,12,1,6,3,4,0,1,3,8,13,0,0,0,0,0,0,0,0,0,0,0,0,0,0,0,0],"split_type":[0,0,0,0,0,0,0,0,0,0,0,0,0,0,0,0,0,0,0,0,0,0,0,0,0,0,0,0,0,0,0],"sum_hessian":[5.884E3,4.948E3,9.36E2,1.496E3,3.452E3,8.42E2,9.4E1,1.476E3,2E1,4.77E2,2.975E3,1.55E2,6.87E2,6.3E1,3.1E1,4.8E1,1.428E3,1.7E1,3E0,3.38E2,1.39E2,2.948E3,2.7E1,3.4E1,1.21E2,6.84E2,3E0,9E0,5.4E1,1.6E1,1.5E1],"tree_param":{"num_deleted":"0","num_feature":"14","num_nodes":"31","size_leaf_vector":"0"}},{"base_weights":[5.6627183E0,4.937872E0,1.8594236E1,3.4050143E0,7.4700985E0,1.5830031E1,3.551844E1,2.6632512E0,7.3098607E0,6.5662746E0,1.1204432E1,9.870488E0,2.2267437E1,5.803951E1,1.1382899E1,2.3346293E0,8.1734705E0,-1.9018925E0,8.247637E0,5.813573E0,1.1772555E1,5.136351E1,1.0679679E1,1.3764079E1,-1.956851E1,4.9243378E1,1.881976E1,3.7233047E1,1.07317894E2,-4.6611107E1,2.2993063E1],"categories":[],"categories_nodes":[],"categories_segments":[],"categories_sizes":[],"default_left":[1,1,1,1,1,1,1,1,1,1,1,1,1,1,1,0,0,0,0,0,0,0,0,0,0,0,0,0,0,0,0],"id":6,"left_children":[1,3,5,7,9,11,13,15,17,19,21,23,25,27,29,-1,-1,-1,-1,-1,-1,-1,-1,-1,-1,-1,-1,-1,-1,-1,-1],"loss_changes":[5.5070453E4,2.1610281E4,1.4033711E4,1.0042871E4,7.0176797E3,1.0138492E4,2.2712344E4,5.270205E3,4.801451E3,6.569961E3,8.049465E3,1.654587E4,1.107082E4,1.8561016E4,1.5884771E4,0E0,0E0,0E0,0E0,0E0,0E0,0E0,0E0,0E0,0E0,0E0,0E0,0E0,0E0,0E0,0E0],"parents":[2147483647,0,0,1,1,2,2,3,3,4,4,5,5,6,6,7,7,8,8,9,9,10,10,11,11,12,12,13,13,14,14],"right_children":[2,4,6,8,10,12,14,16,18,20,22,24,26,28,30,-1,-1,-1,-1,-1,-1,-1,-1,-1,-1,-1,-1,-1,-1,-1,-1],"split_conditions":[6.875E1,2.375E1,1.5525E2,3.0575E2,3.575E1,1.6530762E0,7.7725E2,5.220337E-1,-1.7156982E0,1.4790039E0,-4.1067505E-1,1.9675E2,1.7399597E-1,2.2425E2,7.3950195E-1,7.003888E-1,2.4520411E0,-5.705678E-1,2.474291E0,1.744072E0,3.5317667E0,1.5409054E1,3.203904E0,4.129224E0,-5.870553E0,1.4773014E1,5.645928E0,1.1169914E1,3.219537E1,-1.3983333E1,6.897919E0],"split_indices":[12,12,12,13,5,0,2,7,4,3,1,2,3,12,0,0,0,0,0,0,0,0,0,0,0,0,0,0,0,0,0],"split_type":[0,0,0,0,0,0,0,0,0,0,0,0,0,0,0,0,0,0,0,0,0,0,0,0,0,0,0,0,0,0,0],"sum_hessian":[5.884E3,5.573E3,3.11E2,3.473E3,2.1E3,2.69E2,4.2E1,2.92E3,5.53E2,1.693E3,4.07E2,1.41E2,1.28E2,2.1E1,2.1E1,2.757E3,1.63E2,5.1E1,5.02E2,1.481E3,2.12E2,4E0,4.03E2,1.25E2,1.6E1,1.3E1,1.15E2,1.6E1,5E0,3E0,1.8E1],"tree_param":{"num_deleted":"0","num_feature":"14","num_nodes":"31","size_leaf_vector":"0"}},{"base_weights":[3.97816E0,3.352759E0,1.1864638E1,1.5388052E0,4.362603E0,8.868027E0,1.9671959E1,2.4594964E-1,3.1397665E0,3.1159627E0,6.100823E0,7.824017E0,3.982353E1,2.2860662E1,-8.0500233E-1,1.5576212E-1,2.449E1,-6.0098886E0,3.4841769E0,2.2308746E1,2.8958886E0,5.499358E0,1.4601875E1,1.2417243E1,6.3931775E-1,5.596014E1,1.6285782E0,2.0174446E1,6.2925423E1,-3.703559E1,1.3191763E1],"categories":[],"categories_nodes":[],"categories_segments":[],"categories_sizes":[],"default_left":[1,1,1,1,1,1,1,1,1,1,1,1,1,1,1,0,0,0,0,0,0,0,0,0,0,0,0,0,0,0,0],"id":7,"left_children":[1,3,5,7,9,11,13,15,17,19,21,23,25,27,29,-1,-1,-1,-1,-1,-1,-1,-1,-1,-1,-1,-1,-1,-1,-1,-1],"loss_changes":[2.898629E4,9.98398E3,9.932406E3,4.0394995E3,7.571758E3,9.836227E3,7.7885E3,2.3598035E3,2.7688193E3,8.560473E3,7.3950234E3,1.0057348E4,6.0722344E3,9.815645E3,9.109452E3,0E0,0E0,0E0,0E0,0E0,0E0,0E0,0E0,0E0,0E0,0E0,0E0,0E0,0E0,0E0,0E0],"parents":[2147483647,0,0,1,1,2,2,3,3,4,4,5,5,6,6,7,7,8,8,9,9,10,10,11,11,12,12,13,13,14,14],"right_children":[2,4,6,8,10,12,14,16,18,20,22,24,26,28,30,-1,-1,-1,-1,-1,-1,-1,-1,-1,-1,-1,-1,-1,-1,-1,-1],"split_conditions":[1.0225E2,1.475E1,1.0175E2,2.4675E2,1.56604E0,1.56604E0,1.4025E2,5.220337E-1,-2.194336E0,-3.828125E0,6.959839E-1,6.875E1,-1.4008331E-1,1.25E2,2.45E1,4.6728637E-2,7.347E0,-1.8029667E0,1.0452532E0,6.692624E0,8.687666E-1,1.6498076E0,4.380563E0,3.725173E0,1.9179533E-1,1.6788042E1,4.8857346E-1,6.0523343E0,1.8877628E1,-1.1110678E1,3.957529E0],"split_indices":[2,12,12,13,0,6,5,9,1,3,10,5,10,5,8,0,0,0,0,0,0,0,0,0,0,0,0,0,0,0,0],"split_type":[0,0,0,0,0,0,0,0,0,0,0,0,0,0,0,0,0,0,0,0,0,0,0,0,0,0,0,0,0,0,0],"sum_hessian":[5.884E3,5.453E3,4.31E2,1.951E3,3.502E3,3.13E2,1.18E2,1.08E3,8.71E2,2.041E3,1.461E3,3.04E2,9E0,1.02E2,1.6E1,1.077E3,3E0,3.1E1,8.4E2,2.2E1,2.019E3,1.366E3,9.5E1,1.85E2,1.19E2,6E0,3E0,9.7E1,5E0,4E0,1.2E1],"tree_param":{"num_deleted":"0","num_feature":"14","num_nodes":"31","size_leaf_vector":"0"}},{"base_weights":[2.794771E0,2.0711243E0,6.613908E0,8.310552E0,1.9010817E0,6.1284885E0,3.4172832E1,5.8524785E0,1.714373E1,-3.9662817E0,2.058173E0,2.2686142E1,5.6227016E0,2.8534942E0,4.437482E1,4.107783E0,2.184184E1,-1.8421775E0,2.240544E1,-2.0363823E1,-3.400782E0,1.6429386E1,2.0024235E0,1.0303241E1,5.659397E1,-1.6656832E0,7.3440523E0,1.820314E1,-1.3447316E1,5.1816097E1,4.778951E0],"categories":[],"categories_nodes":[],"categories_segments":[],"categories_sizes":[],"default_left":[1,1,1,1,1,1,1,1,1,1,1,1,1,1,1,0,0,0,0,0,0,0,0,0,0,0,0,0,0,0,0],"id":8,"left_children":[1,3,5,7,9,11,13,15,17,19,21,23,25,27,29,-1,-1,-1,-1,-1,-1,-1,-1,-1,-1,-1,-1,-1,-1,-1,-1],"loss_changes":[1.6250707E4,5.2349395E3,1.2325418E4,2.7440166E3,4.4498945E3,7.5938633E3,4.9856895E3,2.8115215E3,2.8384277E3,1.0991204E3,3.727871E3,1.0753589E4,1.1253332E4,1.4958418E3,3.2880996E3,0E0,0E0,0E0,0E0,0E0,0E0,0E0,0E0,0E0,0E0,0E0,0E0,0E0,0E0,0E0,0E0],"parents":[2147483647,0,0,1,1,2,2,3,3,4,4,5,5,6,6,7,7,8,8,9,9,10,10,11,11,12,12,13,13,14,14],"right_children":[2,4,6,8,10,12,14,16,18,20,22,24,26,28,30,-1,-1,-1,-1,-1,-1,-1,-1,-1,-1,-1,-1,-1,-1,-1,-1],"split_conditions":[6.825E1,-3.3061523E0,2.1748047E0,5.654907E-1,1.3475E2,-2.7163086E0,2.9580078E0,4.125E1,1.45E1,-1.9793701E0,-4.1757812E0,7.675E1,-8.0218506E-1,2.4360352E0,3.895E2,1.2323349E0,6.5525527E0,-5.5265325E-1,6.721632E0,-6.109147E0,-1.0202347E0,4.928816E0,6.007271E-1,3.0909724E0,1.6978191E1,-4.9970496E-1,2.2032158E0,5.4609423E0,-4.034195E0,1.5544829E1,1.4336854E0],"split_indices":[2,3,7,4,13,4,1,2,12,3,9,12,4,4,13,0,0,0,0,0,0,0,0,0,0,0,0,0,0,0,0],"split_type":[0,0,0,0,0,0,0,0,0,0,0,0,0,0,0,0,0,0,0,0,0,0,0,0,0,0,0,0,0,0,0],"sum_hessian":[5.884E3,4.948E3,9.36E2,1.3E2,4.818E3,9.21E2,1.5E1,1.03E2,2.7E1,1.25E2,4.693E3,2.6E1,8.95E2,4E0,1.1E1,9.4E1,9E0,6E0,2.1E1,3E0,1.22E2,1.7E1,4.676E3,2E1,6E0,1.71E2,7.24E2,2E0,2E0,9E0,2E0],"tree_param":{"num_deleted":"0","num_feature":"14","num_nodes":"31","size_leaf_vector":"0"}},{"base_weights":[1.9652659E0,1.8199998E0,1.4944169E1,1.1824168E0,3.530637E0,3.7173332E1,8.113157E0,8.7101966E-1,4.7084484E0,4.8435726E0,1.221131E0,-1.8686808E1,4.7204647E1,3.703331E1,1.8714244E0,1.2548283E0,-2.5368803E0,3.9337318E0,2.1438316E1,4.6836987E0,4.3761036E1,1.6500242E0,-2.3133446E1,5.1997925E1,-5.1573563E0,5.429151E0,7.518121E1,-1.4950611E1,2.1964296E1],"categories":[],"categories_nodes":[],"categories_segments":[],"categories_sizes":[],"default_left":[1,1,1,1,1,1,1,1,1,1,1,0,1,1,1,0,0,0,0,0,0,0,0,0,0,0,0,0,0],"id":9,"left_children":[1,3,5,7,9,11,13,15,17,19,21,-1,23,25,27,-1,-1,-1,-1,-1,-1,-1,-1,-1,-1,-1,-1,-1,-1],"loss_changes":[1.106835E4,6.344633E3,9.568507E3,4.6535977E3,4.7850117E3,9.287363E3,9.1368E3,5.103004E3,4.3742183E3,6.0604766E3,6.033895E3,0E0,3.5309863E3,1.0442521E4,1.486251E4,0E0,0E0,0E0,0E0,0E0,0E0,0E0,0E0,0E0,0E0,0E0,0E0,0E0,0E0],"parents":[2147483647,0,0,1,1,2,2,3,3,4,4,5,5,6,6,7,7,8,8,9,9,10,10,12,12,13,13,14,14],"right_children":[2,4,6,8,10,12,14,16,18,20,22,-1,24,26,28,-1,-1,-1,-1,-1,-1,-1,-1,-1,-1,-1,-1,-1,-1],"split_conditions":[1.2825E2,3.075E1,1.8925E2,3.4799805E0,2.9575E2,3.225E1,1.2E1,8.6997986E-2,2.75E1,1.8270264E0,2.2425E2,-5.6060424E0,4.31E2,3.6975E2,3.0175E2,3.764485E-1,-7.610641E-1,1.1801196E0,6.431495E0,1.4051096E0,1.3128311E1,4.9500728E-1,-6.940034E0,1.5599378E1,-1.547207E0,1.6287454E0,2.2554365E1,-4.4851837E0,6.589289E0],"split_indices":[12,12,2,0,13,5,8,6,11,6,2,0,13,2,13,0,0,0,0,0,0,0,0,0,0,0,0,0,0],"split_type":[0,0,0,0,0,0,0,0,0,0,0,0,0,0,0,0,0,0,0,0,0,0,0,0,0,0,0,0,0],"sum_hessian":[5.884E3,5.82E3,6.4E1,4.241E3,1.579E3,1.4E1,5E1,3.898E3,3.43E2,1.006E3,5.73E2,2E0,1.2E1,8E0,4.2E1,3.504E3,3.94E2,3.29E2,1.4E1,1.003E3,3E0,5.64E2,9E0,1.1E1,1E0,5E0,3E0,2.3E1,1.9E1],"tree_param":{"num_deleted":"0","num_feature":"14","num_nodes":"29","size_leaf_vector":"0"}},{"base_weights":[1.38419E0,1.3184958E0,2.1597023E1,7.902593E-1,2.9986506E0,8.894259E0,3.2140083E1,-7.961816E-3,1.8339323E0,1.1503888E0,5.042222E0,1.4011808E1,-2.285017E0,-5.73624E0,4.2326195E1,1.237456E1,-1.6144052E-1,2.5872355E0,-1.2656108E0,2.474741E0,-1.358832E1,1.0816115E1,2.9782515E0,1.7473818E1,3.571191E0,1.1110204E0,-6.2365646E0,2.077525E1,5.110171E1],"categories":[],"categories_nodes":[],"categories_segments":[],"categories_sizes":[],"default_left":[1,1,1,1,1,1,1,1,1,1,1,1,1,0,1,0,0,0,0,0,0,0,0,0,0,0,0,0,0],"id":10,"left_children":[1,3,5,7,9,11,13,15,17,19,21,23,25,-1,27,-1,-1,-1,-1,-1,-1,-1,-1,-1,-1,-1,-1,-1,-1],"loss_changes":[7.7860166E3,5.204705E3,2.2587324E3,3.719725E3,5.293407E3,6.041222E2,4.100917E3,4.8120454E3,4.5212974E3,1.4438828E4,7.9046074E3,1.9061633E2,6.0607365E1,0E0,4.5131445E2,0E0,0E0,0E0,0E0,0E0,0E0,0E0,0E0,0E0,0E0,0E0,0E0,0E0,0E0],"parents":[2147483647,0,0,1,1,2,2,3,3,4,4,5,5,6,6,7,7,8,8,9,9,10,10,11,11,12,12,14,14],"right_children":[2,4,6,8,10,12,14,16,18,20,22,24,26,-1,28,-1,-1,-1,-1,-1,-1,-1,-1,-1,-1,-1,-1,-1,-1],"split_conditions":[2.4360352E0,5.125E1,3.0449219E0,2.6075E2,6.090088E-1,5.3E1,3.45E1,-3.6540527E0,8.6997986E-2,8.225E1,2.1748047E0,2.6098633E0,3.2407227E0,-1.720872E0,2.8E1,3.7123682E0,-4.843216E-2,7.761707E-1,-3.7968326E-1,7.4242234E-1,-4.076496E0,3.2448347E0,8.934755E-1,5.2421455E0,1.0713574E0,3.3330613E-1,-1.8709694E0,6.232575E0,1.5330514E1],"split_indices":[7,2,1,13,4,5,2,3,7,5,1,7,0,0,12,0,0,0,0,0,0,0,0,0,0,0,0,0,0],"split_type":[0,0,0,0,0,0,0,0,0,0,0,0,0,0,0,0,0,0,0,0,0,0,0,0,0,0,0,0,0],"sum_hessian":[5.884E3,5.866E3,1.8E1,4.464E3,1.402E3,9E0,9E0,2.53E3,1.934E3,7.37E2,6.65E2,6E0,3E0,2E0,7E0,3E1,2.5E3,1.556E3,3.78E2,6.77E2,6E1,1.74E2,4.91E2,4E0,2E0,2E0,1E0,3E0,4E0],"tree_param":{"num_deleted":"0","num_feature":"14","num_nodes":"29","size_leaf_vector":"0"}},{"base_weights":[9.7394276E-1,8.882923E-1,1.258979E1,2.6807198E-1,2.092684E0,2.8040863E1,-2.0650933E0,3.5802218E-1,-1.3002974E1,1.8658917E0,1.5058348E1,1.2801398E1,6.400596E1,3.7254036E1,-1.2303543E1,1.2410578E-1,6.8645377E0,1.47653E1,-1.5932217E1,1.7791935E0,3.5287685E1,4.976357E0,4.251095E1,1.976864E1,-2.3979528E1,1.0274567E1,7.269733E1,5.7623745E1,-2.2112404E1,3.582904E1,-2.0073792E1],"categories":[],"categories_nodes":[],"categories_segments":[],"categories_sizes":[],"default_left":[1,1,1,1,1,1,1,1,1,1,1,1,1,1,1,0,0,0,0,0,0,0,0,0,0,0,0,0,0,0,0],"id":11,"left_children":[1,3,5,7,9,11,13,15,17,19,21,23,25,27,29,-1,-1,-1,-1,-1,-1,-1,-1,-1,-1,-1,-1,-1,-1,-1,-1],"loss_changes":[5.8438164E3,4.3640913E3,9.794557E3,4.610078E3,5.811759E3,1.0690498E4,9.7173955E3,5.8329004E3,2.3500845E3,5.59625E3,9.198864E3,4.574228E3,2.0550605E3,7.320586E3,7.8252646E3,0E0,0E0,0E0,0E0,0E0,0E0,0E0,0E0,0E0,0E0,0E0,0E0,0E0,0E0,0E0,0E0],"parents":[2147483647,0,0,1,1,2,2,3,3,4,4,5,5,6,6,7,7,8,8,9,9,10,10,11,11,12,12,13,13,14,14],"right_children":[2,4,6,8,10,12,14,16,18,20,22,24,26,28,30,-1,-1,-1,-1,-1,-1,-1,-1,-1,-1,-1,-1,-1,-1,-1,-1],"split_conditions":[1.5525E2,1.6530762E0,5.0725E2,1.875E2,4.175E1,2.2425E2,3.525E1,1.1175E2,7.5E0,2.1748047E0,3.4125E2,2.8375E2,3.9151764E-1,1.740036E-1,1.35E1,3.7231736E-2,2.0593615E0,4.42959E0,-4.779665E0,5.337581E-1,1.0586306E1,1.4929072E0,1.2753285E1,5.9305925E0,-7.1938586E0,3.08237E0,2.1809198E1,1.7287125E1,-6.6337214E0,1.0748713E1,-6.0221376E0],"split_indices":[12,0,2,2,11,12,5,2,8,10,13,2,0,7,8,0,0,0,0,0,0,0,0,0,0,0,0,0,0,0,0],"split_type":[0,0,0,0,0,0,0,0,0,0,0,0,0,0,0,0,0,0,0,0,0,0,0,0,0,0,0,0,0,0,0],"sum_hessian":[5.884E3,5.842E3,4.2E1,3.857E3,1.985E3,2E1,2.2E1,3.832E3,2.5E1,1.952E3,3.3E1,1.5E1,5E0,4E0,1.8E1,3.7E3,1.32E2,2E0,2.3E1,1.948E3,4E0,2.5E1,8E0,1.3E1,2E0,1E0,4E0,3E0,1E0,2E0,1.6E1],"tree_param":{"num_deleted":"0","num_feature":"14","num_nodes":"31","size_leaf_vector":"0"}},{"base_weights":[6.9299597E-1,6.067803E-1,8.403281E0,5.105212E-1,6.2817974E0,4.4989468E1,6.5276966E0,2.6192682E0,2.3427986E-1,2.5399227E0,2.8284348E1,-1.3756142E1,9.308822E0,4.094708E1,2.2657938E0,3.164315E0,1.9253374E-3,1.6925552E1,-1.925501E0,-5.300149E0,3.7925587E1,5.219864E0,-2.6185719E1,3.358848E1,4.5624514E0],"categories":[],"categories_nodes":[],"categories_segments":[],"categories_sizes":[],"default_left":[1,1,1,1,1,0,1,1,1,1,1,1,1,0,0,0,0,0,0,0,0,0,0,0,0],"id":12,"left_children":[1,3,5,7,9,-1,11,13,15,17,19,21,23,-1,-1,-1,-1,-1,-1,-1,-1,-1,-1,-1,-1],"loss_changes":[3.9069402E3,3.1766438E3,4.166654E3,3.3343308E3,7.9142466E3,0E0,3.6820027E3,8.889479E3,3.4469194E3,5.4285767E3,4.734158E3,2.0235953E3,6.300209E3,0E0,0E0,0E0,0E0,0E0,0E0,0E0,0E0,0E0,0E0,0E0,0E0],"parents":[2147483647,0,0,1,1,2,2,3,3,4,4,6,6,7,7,8,8,9,9,10,10,11,11,12,12],"right_children":[2,4,6,8,10,-1,12,14,16,18,20,22,24,-1,-1,-1,-1,-1,-1,-1,-1,-1,-1,-1,-1],"split_conditions":[1.2825E2,4.3496094E0,1.3025E2,-1.3049316E0,1.2614746E0,1.34968405E1,-1.7835693E0,-2.194336E0,-1.935791E0,1.1309814E0,-1.3240967E0,2.6100922E-1,-2.610016E-1,1.2284124E1,6.7973816E-1,9.492945E-1,5.7760125E-4,5.077666E0,-5.776503E-1,-1.5900447E0,1.1377676E1,1.5659592E0,-7.8557158E0,1.0076545E1,1.3687354E0],"split_indices":[12,0,12,9,6,0,6,4,6,1,7,0,3,0,0,0,0,0,0,0,0,0,0,0,0],"split_type":[0,0,0,0,0,0,0,0,0,0,0,0,0,0,0,0,0,0,0,0,0,0,0,0,0],"sum_hessian":[5.884E3,5.82E3,6.4E1,5.724E3,9.6E1,2E0,6.2E1,6.62E2,5.062E3,8.3E1,1.3E1,7E0,5.5E1,5E0,6.57E2,3.71E2,4.691E3,1.9E1,6.4E1,3E0,1E1,3E0,4E0,8E0,4.7E1],"tree_param":{"num_deleted":"0","num_feature":"14","num_nodes":"25","size_leaf_vector":"0"}},{"base_weights":[4.9305925E-1,4.5037925E-1,1.3646247E1,4.7929478E-1,-2.0786552E1,1.9978378E1,4.390726E0,-5.8058214E-1,9.0470225E-1,-2.4284712E1,1.8502827E0,7.5018497E0,2.9125175E1,6.451522E0,-6.047821E0,-4.022972E-1,-1.53492E1,2.4843597E0,5.003874E-1,-1.0533186E1,-2.7678684E1,-5.8121805E0,1.1327092E1,3.385469E1,2.7388E0,-2.6703072E-1,1.0536059E1],"categories":[],"categories_nodes":[],"categories_segments":[],"categories_sizes":[],"default_left":[1,1,1,1,1,1,1,1,1,1,0,1,1,1,0,0,0,0,0,0,0,0,0,0,0,0,0],"id":13,"left_children":[1,3,5,7,9,11,13,15,17,19,-1,21,23,25,-1,-1,-1,-1,-1,-1,-1,-1,-1,-1,-1,-1,-1],"loss_changes":[3.2975647E3,3.6127544E3,1.0258167E3,2.6426794E3,6.784319E2,1.0368306E3,2.3262311E2,4.414669E3,2.669713E3,3.516162E1,0E0,3.7141144E2,6.560469E2,2.2235092E2,0E0,0E0,0E0,0E0,0E0,0E0,0E0,0E0,0E0,0E0,0E0,0E0,0E0],"parents":[2147483647,0,0,1,1,2,2,3,3,4,4,5,5,6,6,7,7,8,8,9,9,11,11,12,12,13,13],"right_children":[2,4,6,8,10,12,14,16,18,20,-1,22,24,26,-1,-1,-1,-1,-1,-1,-1,-1,-1,-1,-1,-1,-1],"split_conditions":[2.4360352E0,3.0449219E0,2.3273926E0,1.325E1,2.5446777E0,1.825E1,4.001953E0,8.025E1,-6.090088E-1,2.425E1,5.550848E-1,3.125E1,3.0875E2,1.935791E0,-1.8143464E0,-1.2068916E-1,-4.60476E0,7.453079E-1,1.5011622E-1,-3.159956E0,-8.303606E0,-1.7436543E0,3.3981278E0,1.0156407E1,8.216401E-1,-8.0109216E-2,3.1608179E0],"split_indices":[7,4,0,12,6,11,0,2,3,12,0,2,2,3,0,0,0,0,0,0,0,0,0,0,0,0,0],"split_type":[0,0,0,0,0,0,0,0,0,0,0,0,0,0,0,0,0,0,0,0,0,0,0,0,0,0,0],"sum_hessian":[5.884E3,5.866E3,1.8E1,5.859E3,7E0,1E1,8E0,1.678E3,4.181E3,6E0,1E0,5E0,5E0,7E0,1E0,1.659E3,1.9E1,8.51E2,3.33E3,2E0,4E0,1E0,4E0,4E0,1E0,3E0,4E0],"tree_param":{"num_deleted":"0","num_feature":"14","num_nodes":"27","size_leaf_vector":"0"}},{"base_weights":[3.4499902E-1,3.7207232E0,2.2620024E-1,1.0485855E0,1.5464232E1,-2.8044906E-1,1.1579375E0,-1.2395949E0,1.6689034E1,8.697873E0,3.2863613E1,-5.0832427E-1,4.3471704E0,-2.7296368E1,1.2285297E0,-1.821972E0,1.9599096E1,2.004486E1,-1.0127549E1,1.2882182E1,-5.6953635E0,4.116479E1,-2.273941E-1,-4.373723E-1,-1.5069487E1,1.0584524E1,-1.007462E0,-4.0148106E1,-5.345839E0,8.5701084E-1,6.3114896E0],"categories":[],"categories_nodes":[],"categories_segments":[],"categories_sizes":[],"default_left":[1,1,1,1,1,1,1,1,1,1,1,1,1,1,1,0,0,0,0,0,0,0,0,0,0,0,0,0,0,0,0],"id":14,"left_children":[1,3,5,7,9,11,13,15,17,19,21,23,25,27,29,-1,-1,-1,-1,-1,-1,-1,-1,-1,-1,-1,-1,-1,-1,-1,-1],"loss_changes":[2.359231E3,6.259839E3,2.684481E3,5.889947E3,4.0701836E3,3.8870608E3,4.0568582E3,1.7832896E3,2.0928335E3,1.7596895E3,2.7563037E3,3.6218079E3,5.7886445E3,1.1958867E3,3.7695327E3,0E0,0E0,0E0,0E0,0E0,0E0,0E0,0E0,0E0,0E0,0E0,0E0,0E0,0E0,0E0,0E0],"parents":[2147483647,0,0,1,1,2,2,3,3,4,4,5,5,6,6,7,7,8,8,9,9,10,10,11,11,12,12,13,13,14,14],"right_children":[2,4,6,8,10,12,14,16,18,20,22,24,26,28,30,-1,-1,-1,-1,-1,-1,-1,-1,-1,-1,-1,-1,-1,-1,-1,-1],"split_conditions":[-1.6530762E0,2.1748047E0,1.6530762E0,3.095E2,3.775E1,9.569702E-1,-4.3496094E0,6.8E1,1.6965332E0,2.835E2,6.8E1,6.875E1,2.785E2,2.9489136E-1,7.125E1,-5.4659164E-1,5.8797293E0,6.0134587E0,-3.038265E0,3.8646548E0,-1.7086091E0,1.2349438E1,-6.821823E-2,-1.312117E-1,-4.5208464E0,3.1753573E0,-3.022386E-1,-1.2044433E1,-1.6037518E0,2.5710326E-1,1.8934469E0],"split_indices":[0,1,0,13,2,3,9,2,1,13,2,8,13,4,12,0,0,0,0,0,0,0,0,0,0,0,0,0,0,0,0],"split_type":[0,0,0,0,0,0,0,0,0,0,0,0,0,0,0,0,0,0,0,0,0,0,0,0,0,0,0,0,0,0,0],"sum_hessian":[5.884E3,1.99E2,5.685E3,1.63E2,3.6E1,3.683E3,2.002E3,1.43E2,2E1,2.7E1,9E0,3.511E3,1.72E2,4E0,1.998E3,1.4E2,3E0,1.8E1,2E0,2.1E1,6E0,7E0,2E0,3.495E3,1.6E1,7.9E1,9.3E1,2E0,2E0,1.863E3,1.35E2],"tree_param":{"num_deleted":"0","num_feature":"14","num_nodes":"31","size_leaf_vector":"0"}},{"base_weights":[2.4310794E-1,-2.1387777E0,4.1301256E-1,1.8145851E1,-2.938065E0,2.7013338E0,1.19782135E-1,-1.2599496E0,4.0503902E1,-1.0921978E1,-1.8806615E0,-1.0553811E0,4.595813E0,-3.272055E0,4.1407275E-1,-7.384008E0,5.116099E0,4.4489475E1,8.295231E0,-2.881062E0,-2.0427025E1,-2.5167072E0,2.1437962E1,-4.819432E-2,-4.2340397E1,1.2857142E1,3.1905444E0,-3.6706192E0,4.9233444E1,3.4043962E-1,9.762065E0],"categories":[],"categories_nodes":[],"categories_segments":[],"categories_sizes":[],"default_left":[1,1,1,1,1,1,1,1,1,1,1,1,1,1,1,0,0,0,0,0,0,0,0,0,0,0,0,0,0,0,0],"id":15,"left_children":[1,3,5,7,9,11,13,15,17,19,21,23,25,27,29,-1,-1,-1,-1,-1,-1,-1,-1,-1,-1,-1,-1,-1,-1,-1,-1],"loss_changes":[2.382504E3,6.4089077E3,3.6861807E3,6.5591714E3,3.1706184E3,4.4458696E3,4.8635176E3,3.892029E2,5.2954004E2,3.3040366E3,5.022576E3,8.730121E3,4.776874E3,8.321252E3,3.0824238E3,0E0,0E0,0E0,0E0,0E0,0E0,0E0,0E0,0E0,0E0,0E0,0E0,0E0,0E0,0E0,0E0],"parents":[2147483647,0,0,1,1,2,2,3,3,4,4,5,5,6,6,7,7,8,8,9,9,10,10,11,11,12,12,13,13,14,14],"right_children":[2,4,6,8,10,12,14,16,18,20,22,24,26,28,30,-1,-1,-1,-1,-1,-1,-1,-1,-1,-1,-1,-1,-1,-1,-1,-1],"split_conditions":[-2.4550781E0,-2.7163086E0,-1.498169E0,3.675E1,-1.2180176E0,-8.892212E-1,-8.892212E-1,-2.9770508E0,1.0440063E0,2.425E1,1.135E2,1.225E2,6.959839E-1,1.225E2,2.1750488E0,-2.2152026E0,1.5348297E0,1.3346843E1,2.4885693E0,-8.6431867E-1,-6.1281075E0,-7.550122E-1,6.431389E0,-1.4458296E-2,-1.270212E1,3.857143E0,9.5716333E-1,-1.1011858E0,1.4770034E1,1.0213189E-1,2.9286196E0],"split_indices":[7,4,7,2,3,4,7,4,3,5,12,2,1,12,6,0,0,0,0,0,0,0,0,0,0,0,0,0,0,0,0],"split_type":[0,0,0,0,0,0,0,0,0,0,0,0,0,0,0,0,0,0,0,0,0,0,0,0,0,0,0,0,0,0,0],"sum_hessian":[5.884E3,3.91E2,5.493E3,1.4E1,3.77E2,6.23E2,4.87E3,8E0,6E0,4.3E1,3.34E2,2.09E2,4.14E2,3.88E2,4.482E3,4E0,4E0,5E0,1E0,2.4E1,1.9E1,3.26E2,8E0,2.05E2,4E0,5.9E1,3.55E2,3.86E2,2E0,4.448E3,3.4E1],"tree_param":{"num_deleted":"0","num_feature":"14","num_nodes":"31","size_leaf_vector":"0"}},{"base_weights":[1.7402202E-1,-2.854354E0,2.9046732E-1,-2.0538287E0,-2.1216124E1,1.8190216E0,8.415379E-2,7.022096E0,-2.8896463E0,-1.3076782E-1,-2.722183E1,1.3620856E0,2.1802942E1,1.5427384E1,4.4108402E-2,-6.443646E0,1.4291938E1,-3.6921372E0,8.505778E0,-2.3221817E0,2.12603E0,5.7171607E-1,1.1658358E1,5.5087994E1,-6.5079803E0,3.5383354E1,-1.4680176E0,3.853829E0,-7.8184165E-2],"categories":[],"categories_nodes":[],"categories_segments":[],"categories_sizes":[],"default_left":[1,1,1,1,1,1,1,1,1,1,0,1,1,1,1,0,0,0,0,0,0,0,0,0,0,0,0,0,0],"id":16,"left_children":[1,3,5,7,9,11,13,15,17,19,-1,21,23,25,27,-1,-1,-1,-1,-1,-1,-1,-1,-1,-1,-1,-1,-1,-1],"loss_changes":[2.0761162E3,3.1608208E3,1.7873154E3,1.6133132E3,1.1361323E3,6.1248486E3,3.068375E3,1.8541809E3,1.7963367E3,1.9773762E1,0E0,5.3643213E3,1.4493469E4,4.4350776E3,2.3218835E3,0E0,0E0,0E0,0E0,0E0,0E0,0E0,0E0,0E0,0E0,0E0,0E0,0E0,0E0],"parents":[2147483647,0,0,1,1,2,2,3,3,4,4,5,5,6,6,7,7,8,8,9,9,11,11,12,12,13,13,14,14],"right_children":[2,4,6,8,10,12,14,16,18,20,-1,22,24,26,28,-1,-1,-1,-1,-1,-1,-1,-1,-1,-1,-1,-1,-1,-1],"split_conditions":[4.25E0,2.725E1,-1.3049316E0,-1.3919678E0,-1.9359131E0,6.275E1,-3.064209E0,-2.2402344E0,3.975E1,3.3276367E0,-8.16655E0,3.0449219E0,2.855E2,2.975E1,-3.3061523E0,-1.9330939E0,4.2875814E0,-1.1076412E0,2.5517335E0,-6.9665456E-1,6.3780904E-1,1.7151482E-1,3.4975073E0,1.65264E1,-1.9523941E0,1.0615006E1,-4.4040528E-1,1.1561487E0,-2.3455251E-2],"split_indices":[12,8,9,0,9,8,10,0,2,0,0,1,13,2,6,0,0,0,0,0,0,0,0,0,0,0,0,0,0],"split_type":[0,0,0,0,0,0,0,0,0,0,0,0,0,0,0,0,0,0,0,0,0,0,0,0,0,0,0,0,0],"sum_hessian":[5.884E3,2.17E2,5.667E3,2.09E2,8E0,6.73E2,4.994E3,1.7E1,1.92E2,2E0,6E0,6.59E2,1.4E1,1.2E1,4.982E3,6E0,1.1E1,1.8E2,1.2E1,1E0,1E0,6.13E2,4.6E1,6E0,8E0,5E0,7E0,1.54E2,4.828E3],"tree_param":{"num_deleted":"0","num_feature":"14","num_nodes":"29","size_leaf_vector":"0"}},{"base_weights":[1.2608464E-1,2.6301005E0,1.452581E-2,-3.7193307E-1,9.293225E0,-3.3107567E0,1.4576814E-1,-6.2179365E0,1.4769697E0,2.6115042E1,3.0423393E0,-2.2729208E0,-1.797463E1,3.4783847E0,3.5922725E-2,-8.629354E-1,-1.1531845E1,2.429896E0,-8.334197E0,-5.6248903E0,3.1717524E1,-5.105272E-1,2.9000443E1,-2.8557208E0,3.7143784E1,1.2823479E1,-2.1330137E1,-5.417924E-1,8.268744E0,-2.5679534E-3,9.620224E0],"categories":[],"categories_nodes":[],"categories_segments":[],"categories_sizes":[],"default_left":[1,1,1,1,1,1,1,1,1,1,1,1,1,1,1,0,0,0,0,0,0,0,0,0,0,0,0,0,0,0,0],"id":17,"left_children":[1,3,5,7,9,11,13,15,17,19,21,23,25,27,29,-1,-1,-1,-1,-1,-1,-1,-1,-1,-1,-1,-1,-1,-1,-1,-1],"loss_changes":[1.6439076E3,5.0241904E3,2.459697E3,1.889896E3,8.1223467E3,3.2159456E3,1.9847212E3,1.1852002E3,1.2637108E3,3.9126768E3,5.363895E3,4.723455E3,1.720332E3,3.3361304E3,1.9367825E3,0E0,0E0,0E0,0E0,0E0,0E0,0E0,0E0,0E0,0E0,0E0,0E0,0E0,0E0,0E0,0E0],"parents":[2147483647,0,0,1,1,2,2,3,3,4,4,5,5,6,6,7,7,8,8,9,9,10,10,11,11,12,12,13,13,14,14],"right_children":[2,4,6,8,10,12,14,16,18,20,22,24,26,28,30,-1,-1,-1,-1,-1,-1,-1,-1,-1,-1,-1,-1,-1,-1,-1,-1],"split_conditions":[-2.6291504E0,2.675E1,-2.7163086E0,-8.0218506E-1,3.175E1,4.8E1,-1.7399902E0,-1.1309814E0,2.575E1,-2.9770508E0,8.075E1,2.44E2,2.6100922E-1,6.959839E-1,4.698242E0,-2.5888065E-1,-3.4595537E0,7.2896886E-1,-2.5002592E0,-1.6874672E0,9.515258E0,-1.5315816E-1,8.700133E0,-8.567163E-1,1.1143135E1,3.8470438E0,-6.3990417E0,-1.6253772E-1,2.4806235E0,-7.703861E-4,2.8860674E0],"split_indices":[4,12,7,1,12,5,0,3,5,4,12,2,1,1,0,0,0,0,0,0,0,0,0,0,0,0,0,0,0,0,0],"split_type":[0,0,0,0,0,0,0,0,0,0,0,0,0,0,0,0,0,0,0,0,0,0,0,0,0,0,0,0,0,0,0],"sum_hessian":[5.884E3,2.5E2,5.634E3,1.73E2,7.7E1,2.13E2,5.421E3,4.1E1,1.32E2,2E1,5.7E1,2E2,1.3E1,1.72E2,5.249E3,2.1E1,2E1,1.21E2,1.1E1,3E0,1.7E1,5.1E1,6E0,1.98E2,2E0,1E0,1.2E1,9.4E1,7.8E1,5.229E3,2E1],"tree_param":{"num_deleted":"0","num_feature":"14","num_nodes":"31","size_leaf_vector":"0"}},{"base_weights":[9.230729E-2,6.274071E-2,9.217298E0,8.5541494E-2,-1.6646673E1,2.8520653E0,1.46608E1,5.5115495E-2,1.1195192E1,-1.9022482E1,-8.00705E-3,4.5303674E0,-6.1263275E0,-5.665726E0,2.0450647E1,1.6023627E-1,-5.0481634E0,-8.810518E0,2.407967E1,-8.463438E0,-2.1553413E1,6.1199803E0,1.0133562E0,7.9925966E0,2.632696E1],"categories":[],"categories_nodes":[],"categories_segments":[],"categories_sizes":[],"default_left":[1,1,1,1,1,1,1,1,1,1,0,1,0,0,1,0,0,0,0,0,0,0,0,0,0],"id":18,"left_children":[1,3,5,7,9,11,13,15,17,19,-1,21,-1,-1,23,-1,-1,-1,-1,-1,-1,-1,-1,-1,-1],"loss_changes":[1.587164E3,2.236679E3,6.165204E2,1.980193E3,3.160901E2,1.7843906E2,1.2927427E3,3.136421E3,4.3363643E3,4.6535645E0,0E0,4.4114456E1,0E0,0E0,3.7523828E2,0E0,0E0,0E0,0E0,0E0,0E0,0E0,0E0,0E0,0E0],"parents":[2147483647,0,0,1,1,2,2,3,3,4,4,5,5,6,6,7,7,8,8,9,9,11,11,14,14],"right_children":[2,4,6,8,10,12,14,16,18,20,-1,22,-1,-1,24,-1,-1,-1,-1,-1,-1,-1,-1,-1,-1],"split_conditions":[2.4360352E0,3.0449219E0,3.0449219E0,3.6540527E0,2.5446777E0,4.001953E0,3.45E1,2.8710938E0,2.6098633E-1,2.425E1,-2.402115E-3,2.6098633E0,-1.8378984E0,-1.6997179E0,2.8E1,4.807088E-2,-1.5144491E0,-2.6431556E0,7.2239013E0,-2.5390315E0,-6.4660244E0,1.8359941E0,3.0400687E-1,2.397779E0,7.898088E0],"split_indices":[7,4,1,3,6,0,2,3,9,12,0,7,0,0,12,0,0,0,0,0,0,0,0,0,0],"split_type":[0,0,0,0,0,0,0,0,0,0,0,0,0,0,0,0,0,0,0,0,0,0,0,0,0],"sum_hessian":[5.884E3,5.866E3,1.8E1,5.859E3,7E0,9E0,9E0,5.844E3,1.5E1,6E0,1E0,8E0,1E0,2E0,7E0,5.727E3,1.17E2,6E0,9E0,2E0,4E0,5E0,3E0,3E0,4E0],"tree_param":{"num_deleted":"0","num_feature":"14","num_nodes":"25","size_leaf_vector":"0"}},{"base_weights":[6.51268E-2,1.0651378E-1,-5.83663E0,5.2533437E-2,1.7578232E1,-2.895005E1,-2.2651234E-1,1.0740844E-1,-7.0019016E0,-6.7559814E0,3.3677822E1,-4.0331783E1,2.5361042E1,1.5787082E1,-6.6228895E0,6.730501E-2,1.2950134E1,8.698492E0,-1.0122987E1,-3.0691921E1,2.485294E1,-2.4937225E1,4.2033047E1,-8.4056015E0,-4.425188E1,-2.5399794E1,2.31856E1,2.0929987E1,-9.928791E0],"categories":[],"categories_nodes":[],"categories_segments":[],"categories_sizes":[],"default_left":[1,1,1,1,1,1,1,1,1,1,1,1,0,1,1,0,0,0,0,0,0,0,0,0,0,0,0,0,0],"id":19,"left_children":[1,3,5,7,9,11,13,15,17,19,21,23,-1,25,27,-1,-1,-1,-1,-1,-1,-1,-1,-1,-1,-1,-1,-1,-1],"loss_changes":[1.4380676E3,5.5116675E3,5.309872E3,2.2568416E3,7.279402E3,5.968092E3,3.5871416E3,2.9781042E3,2.2931565E3,6.815498E3,6.4353506E3,5.041123E2,0E0,3.636128E3,2.484987E3,0E0,0E0,0E0,0E0,0E0,0E0,0E0,0E0,0E0,0E0,0E0,0E0,0E0,0E0],"parents":[2147483647,0,0,1,1,2,2,3,3,4,4,5,5,6,6,7,7,8,8,9,9,10,10,11,11,13,13,14,14],"right_children":[2,4,6,8,10,12,14,16,18,20,22,24,-1,26,28,-1,-1,-1,-1,-1,-1,-1,-1,-1,-1,-1,-1,-1,-1],"split_conditions":[1.3675E2,2.2425E2,1.4875E2,1.9125E2,-7.151489E-1,9.1345215E-1,2.26E2,1.7575E2,-2.194336E0,1.1744385E0,-1.1310425E0,8.6997986E-2,7.608313E0,1.565918E0,-1.4008331E-1,2.0191506E-2,3.8850405E0,2.6095476E0,-3.0368962E0,-9.207577E0,7.455882E0,-7.481168E0,1.2609915E1,-2.5216806E0,-1.3275565E1,-7.6199384E0,6.9556804E0,6.2789965E0,-2.9786375E0],"split_indices":[5,12,5,2,10,6,2,2,7,3,3,4,0,1,4,0,0,0,0,0,0,0,0,0,0,0,0,0,0],"split_type":[0,0,0,0,0,0,0,0,0,0,0,0,0,0,0,0,0,0,0,0,0,0,0,0,0,0,0,0,0],"sum_hessian":[5.884E3,5.844E3,4E1,5.827E3,1.7E1,7E0,3.3E1,5.783E3,4.4E1,7E0,1E1,6E0,1E0,9E0,2.4E1,5.766E3,1.7E1,7E0,3.7E1,4E0,3E0,1E0,9E0,1E0,5E0,1E0,8E0,2E0,2.2E1],"tree_param":{"num_deleted":"0","num_feature":"14","num_nodes":"29","size_leaf_vector":"0"}}]},"name":"gbtree"},"learner_model_param":{"base_score":"5E-1","num_class":"0","num_feature":"14","num_target":"1"},"objective":{"name":"reg:squarederror","reg_loss_param":{"scale_pos_weight":"1"}}},"version":[1,6,0]}